<?xml version="1.0"?>
<opencv_storage>
<OCR type_id="opencv-ml-ann-mlp">
  <layer_sizes type_id="opencv-matrix">
    <rows>1</rows>
    <cols>3</cols>
    <dt>i</dt>
    <data>
      128 36 36</data></layer_sizes>
  <activation_function>SIGMOID_SYM</activation_function>
  <f_param1>5.9999999999999998e-001</f_param1>
  <f_param2>1.</f_param2>
  <min_val>-9.4999999999999996e-001</min_val>
  <max_val>9.4999999999999996e-001</max_val>
  <min_val1>-9.7999999999999998e-001</min_val1>
  <max_val1>9.7999999999999998e-001</max_val1>
  <training_params>
    <train_method>BACKPROP</train_method>
    <dw_scale>1.0000000000000001e-001</dw_scale>
    <moment_scale>1.0000000000000001e-001</moment_scale>
    <term_criteria><epsilon>9.9999999747524271e-007</epsilon>
      <iterations>1000</iterations></term_criteria></training_params>
  <input_scale>
    1.4446354066051510e+001 -1.4376797546474226e+001
    3.4074968968844948e+000 -3.0831536737366005e+000
    3.0028726392852292e+000 -2.6213965965908463e+000
    3.5716730818228855e+000 -3.2654351861036268e+000
    4.3251739265499483e+000 -4.0800807373787844e+000
    4.5176675681429179e+000 -4.2842547437888676e+000
    4.7232617167491942e+000 -4.5010934804428437e+000
    4.4724810671623807e+000 -4.2364334552843657e+000
    4.6711684220137402e+000 -4.4462603128056708e+000
    4.3933173085552086e+000 -4.1524984338640341e+000
    4.4287311207381466e+000 -4.1900717214539247e+000
    4.9727551772631946e+000 -4.7627944031120819e+000
    5.1607247555404232e+000 -4.9590742141665292e+000
    5.5120869151870426e+000 -5.3242676573362253e+000
    4.6711684220137402e+000 -4.4462603128056708e+000
    3.6291576497989886e+000 -3.3287440443434058e+000
    3.7880506052032792e+000 -3.5025438281074024e+000
    2.0643735815601261e+000 -1.2879397400511232e+000
    2.2704480654220647e+000 -1.6725634081942544e+000
    3.0959521518100535e+000 -2.7295978138458641e+000
    3.9435277506185926e+000 -3.6711322226591974e+000
    3.8631590903729420e+000 -3.5841531560682296e+000
    3.4750329861563989e+000 -3.1584188696399269e+000
    2.8787674860447505e+000 -2.4746738278184690e+000
    2.5823620503615663e+000 -2.1079725774062563e+000
    2.6749884242614717e+000 -2.2256894426308875e+000
    2.9771163706678450e+000 -2.5911938781738648e+000
    3.5612398864735866e+000 -3.2539180740482734e+000
    4.1001545102598014e+000 -3.8397187700710771e+000
    4.1807000110421564e+000 -3.9259869918508841e+000
    3.2748594823712391e+000 -2.9340315140207509e+000
    2.0838029694362170e+000 -1.3344056793167478e+000
    3.6744259955127179e+000 -3.3784305680964155e+000
    2.0664100586271905e+000 -1.2930369607594956e+000
    2.3830027897140265e+000 -1.8393251162089006e+000
    3.3224233546281581e+000 -2.9877199648285808e+000
    3.8360787696567340e+000 -3.5547663265485734e+000
    3.9732625377774644e+000 -3.7032278430803660e+000
    3.5106118169161156e+000 -3.1979073198908097e+000
    2.9645499746032531e+000 -2.5764135242246420e+000
    2.7328551151162763e+000 -2.2976226338199806e+000
    2.7290027438811650e+000 -2.2928676757386750e+000
    2.9486878851573097e+000 -2.5577137137179329e+000
    3.4530362353297868e+000 -3.1339501091391271e+000
    3.6553299372487071e+000 -3.3574882386580716e+000
    3.7297665418854566e+000 -3.4389828911199420e+000
    2.8193183087695131e+000 -2.4032078102344570e+000
    2.2118165250689854e+000 -1.5781720502020002e+000
    4.0563695715741863e+000 -3.7927055494218642e+000
    2.3414645289542348e+000 -1.7795130420052185e+000
    2.2782273225706153e+000 -1.6846225368563827e+000
    2.4575331225953274e+000 -1.9428164630295284e+000
    2.6060395132653031e+000 -2.1384002006071405e+000
    2.7445491420102450e+000 -2.3120285272230747e+000
    2.9212773780761547e+000 -2.5252820001591649e+000
    2.8740164209011732e+000 -2.4689929956593599e+000
    2.6691311672019196e+000 -2.2183445700744842e+000
    2.6102571320557244e+000 -2.1437945149383588e+000
    2.6307106639494289e+000 -2.1698491291168067e+000
    2.6541555622179276e+000 -2.1995085446157825e+000
    2.6155718717359338e+000 -2.1505813167606567e+000
    2.5684123124575096e+000 -2.0899266112848700e+000
    2.4795740739186543e+000 -1.9726389299175071e+000
    2.5405717282552129e+000 -2.0536288136729639e+000
    9.3866068965609699e+000 -9.2788347433041576e+000
    3.9884137726844022e+000 -3.7195651405997503e+000
    3.1523309707320708e+000 -2.7944830290545228e+000
    3.5647058994843595e+000 -3.2577451136954285e+000
    4.5100334572721650e+000 -4.2761798705987939e+000
    5.3337632384807252e+000 -5.1391796536694843e+000
    5.5120869151870426e+000 -5.3242676573362253e+000
    5.1963063896214257e+000 -4.9961523657248970e+000
    4.5883146774112360e+000 -4.3588989435406740e+000
    4.6969824340627957e+000 -4.4734408626638809e+000
    5.0365859489074731e+000 -4.8295263043412771e+000
    4.8816711965302586e+000 -4.6674200717936527e+000
    4.4948899673421261e+000 -4.2601568246031487e+000
    4.2229843863142547e+000 -3.9711693914266268e+000
    3.9435277506185926e+000 -3.6711322226591974e+000
    3.6217971792542403e+000 -3.3206514508310634e+000
    3.9386438942770283e+000 -3.6658563356733973e+000
    2.2740571612858616e+000 -1.6781699606896590e+000
    2.0532647410785483e+000 -1.2589554736501987e+000
    2.1675878735544933e+000 -1.5016567101791407e+000
    2.5904885572040848e+000 -2.1184439756691185e+000
    3.0752391592711334e+000 -2.7056409714253991e+000
    3.4315198771612283e+000 -3.1099737553383426e+000
    3.3725478898102073e+000 -3.0440367435064721e+000
    3.1258422948632623e+000 -2.7640549922170514e+000
    2.9880513951916075e+000 -2.6040314566243898e+000
    2.9574597523529920e+000 -2.5680608849598481e+000
    3.1065053928352420e+000 -2.7417786485653264e+000
    3.0103889017284966e+000 -2.6301879330287123e+000
    2.8803580571623351e+000 -2.4765745295193931e+000
    2.5087531038216784e+000 -2.0116483221384938e+000
    2.3584971255907501e+000 -1.8042503010769237e+000
    3.7096767640696937e+000 -3.4170244860153067e+000
    2.2608357843418334e+000 -1.6575275685572810e+000
    2.0617800736587979e+000 -1.2813581346664678e+000
    2.2109620674391368e+000 -1.5767435040200215e+000
    2.6832815729997481e+000 -2.2360679774997902e+000
    3.3009801698572478e+000 -2.9635466413829512e+000
    3.5305619599632019e+000 -3.2200032690405131e+000
    3.4345648637572137e+000 -3.1133694459428813e+000
    3.1065053928352420e+000 -2.7417786485653264e+000
    2.9753086737083043e+000 -2.5890695292139485e+000
    2.9486878851573097e+000 -2.5577137137179329e+000
    3.0353182065694115e+000 -2.6592760065333119e+000
    3.0490688905500964e+000 -2.6752756302641401e+000
    2.7088319847937914e+000 -2.2678943339356907e+000
    2.3464390373149198e+000 -1.7867698743405465e+000
    2.4067851697006244e+000 -1.8728354227929673e+000
    4.0780671561627262e+000 -3.8160135814981957e+000
    2.5803482373519526e+000 -2.1053730247727227e+000
    2.1363074503959099e+000 -1.4435899789804953e+000
    2.1260923454673413e+000 -1.4236944298536862e+000
    2.3322970270984618e+000 -1.7660671377417796e+000
    2.6797139733322006e+000 -2.2316062477916492e+000
    3.0610434903182191e+000 -2.6891833922351167e+000
    3.1960138605029655e+000 -2.8444523358476395e+000
    2.9753086737083043e+000 -2.5890695292139485e+000
    2.8661661347402951e+000 -2.4595951608123197e+000
    2.7906656256146856e+000 -2.3684482522577972e+000
    2.8599464520251736e+000 -2.4521392727549172e+000
    2.7892636401718662e+000 -2.3667418517162022e+000
    2.6587249647662143e+000 -2.2052646513310878e+000
    2.6691311672019196e+000 -2.2183445700744842e+000
    3.0294960414910119e+000 -2.6524920896610191e+000</input_scale>
  <output_scale>
    227158990. -2.1580103950000000e+008 227158990.
    -2.1580103950000000e+008 227158990. -2.1580103950000000e+008
    227158990. -2.1580103950000000e+008 227158990.
    -2.1580103950000000e+008 227158990. -2.1580103950000000e+008
    227158990. -2.1580103950000000e+008 227158990.
    -2.1580103950000000e+008 227158990. -2.1580103950000000e+008
    227158990. -2.1580103950000000e+008 227158990.
    -2.1580103950000000e+008 227158990. -2.1580103950000000e+008
    227158990. -2.1580103950000000e+008 227158990.
    -2.1580103950000000e+008 227158990. -2.1580103950000000e+008
    227158990. -2.1580103950000000e+008 227158990.
    -2.1580103950000000e+008 227158990. -2.1580103950000000e+008
    227158990. -2.1580103950000000e+008 227158990.
    -2.1580103950000000e+008 227158990. -2.1580103950000000e+008
    227158990. -2.1580103950000000e+008 227158990.
    -2.1580103950000000e+008 227158990. -2.1580103950000000e+008
    227158990. -2.1580103950000000e+008 227158990.
    -2.1580103950000000e+008 227158990. -2.1580103950000000e+008
    227158990. -2.1580103950000000e+008 227158990.
    -2.1580103950000000e+008 227158990. -2.1580103950000000e+008
    227158990. -2.1580103950000000e+008 227158990.
    -2.1580103950000000e+008 227158990. -2.1580103950000000e+008
    227158990. -2.1580103950000000e+008 227158990.
    -2.1580103950000000e+008 227158990. -2.1580103950000000e+008</output_scale>
  <inv_output_scale>
    4.4022030561062097e-009 9.4999999559779691e-001
    4.4022030561062097e-009 9.4999999559779691e-001
    4.4022030561062097e-009 9.4999999559779691e-001
    4.4022030561062097e-009 9.4999999559779691e-001
    4.4022030561062097e-009 9.4999999559779691e-001
    4.4022030561062097e-009 9.4999999559779691e-001
    4.4022030561062097e-009 9.4999999559779691e-001
    4.4022030561062097e-009 9.4999999559779691e-001
    4.4022030561062097e-009 9.4999999559779691e-001
    4.4022030561062097e-009 9.4999999559779691e-001
    4.4022030561062097e-009 9.4999999559779691e-001
    4.4022030561062097e-009 9.4999999559779691e-001
    4.4022030561062097e-009 9.4999999559779691e-001
    4.4022030561062097e-009 9.4999999559779691e-001
    4.4022030561062097e-009 9.4999999559779691e-001
    4.4022030561062097e-009 9.4999999559779691e-001
    4.4022030561062097e-009 9.4999999559779691e-001
    4.4022030561062097e-009 9.4999999559779691e-001
    4.4022030561062097e-009 9.4999999559779691e-001
    4.4022030561062097e-009 9.4999999559779691e-001
    4.4022030561062097e-009 9.4999999559779691e-001
    4.4022030561062097e-009 9.4999999559779691e-001
    4.4022030561062097e-009 9.4999999559779691e-001
    4.4022030561062097e-009 9.4999999559779691e-001
    4.4022030561062097e-009 9.4999999559779691e-001
    4.4022030561062097e-009 9.4999999559779691e-001
    4.4022030561062097e-009 9.4999999559779691e-001
    4.4022030561062097e-009 9.4999999559779691e-001
    4.4022030561062097e-009 9.4999999559779691e-001
    4.4022030561062097e-009 9.4999999559779691e-001
    4.4022030561062097e-009 9.4999999559779691e-001
    4.4022030561062097e-009 9.4999999559779691e-001
    4.4022030561062097e-009 9.4999999559779691e-001
    4.4022030561062097e-009 9.4999999559779691e-001
    4.4022030561062097e-009 9.4999999559779691e-001
    4.4022030561062097e-009 9.4999999559779691e-001</inv_output_scale>
  <weights>
    <_>
      2.1649898412690067e+000 3.6348698254314049e-001
      7.1685785675080771e-002 -1.3878011747920493e+000
      -6.1663009485875120e-001 3.5938954167582227e-001
      6.9134596643588189e-002 2.4318331036321547e-001
      8.7316267860399133e-001 4.6752551178058199e-001
      4.1725423710674461e-002 8.3007975246551491e-001
      -6.9913635906051008e-001 -1.2685309553886090e-001
      -1.3888981402555223e+000 1.5502039392949277e-001
      3.8757415019632424e-001 1.7787839594990571e+000
      1.8797672779674230e+000 5.6573312689124466e-001
      6.1090901014188259e-001 7.0814522602934915e-001
      -1.0275902670085568e+000 -4.8817499435087919e-001
      5.2210468053105097e-001 -1.5037774246847735e-001
      6.1332433586219315e-001 -2.7219780013154637e-001
      1.7675176927951325e-001 3.1197702907378444e-001
      -3.5768256816400379e-001 -3.9681987438045624e-001
      2.6231884035139341e-001 2.5536689955708775e-001
      3.0260156067853206e-001 -2.9875578455835150e-001
      -1.2390038898447013e+001 7.1339016051389925e-001
      4.7332834111659677e-001 2.8500200467515224e-001
      1.0438286403394639e+000 5.1869817481228153e-001
      -1.5145268502687315e-001 -1.0751106243576918e+000
      6.5474321715673453e-002 -1.8081426874245563e+000
      4.1686071897182564e-001 -1.5911961441918959e-001
      4.4820018563531466e-001 1.4045476775697321e+000
      -1.5285360671142154e+000 6.6661661942350037e-001
      -2.0903247427250447e-002 1.5213692300380253e+000
      4.8252754812026111e-001 2.9808132869371828e-001
      -8.6183351469149927e-001 -3.1602844529460796e+000
      -1.9100569531264446e+000 2.1549934528522972e+000
      -4.5672555266426579e-001 -7.7883317395625884e-001
      5.1215662691493646e-001 -1.6804427169265037e+000
      1.1222256913984496e-001 5.7956000323284625e-003
      -8.5949826617091640e-001 4.1548410024674426e-001
      2.2380412813172428e-002 -1.0081144213829374e+000
      -1.2474858077985096e+000 5.4383409196389354e-001
      2.1771774910089628e-001 1.1261799385857960e+000
      -5.5421036222653867e-002 -4.4926448524247714e-001
      8.6864160201668417e-001 9.6076955347610271e-001
      -1.1836562336235188e+000 1.0285057961369792e+000
      1.1286381413557729e+000 -1.1663549772479134e+000
      -5.1037958353398505e-001 1.0556899855744727e-001
      -8.2074007342089017e-001 -1.2184664083212067e-001
      -1.1823107874355301e+000 3.1644154119135237e-001
      1.8598261293553928e-001 -4.8184067322787127e-001
      1.0186125100746173e+000 4.4504446292435124e-001
      9.3411214235945284e-001 -2.0270915599455925e+000
      -1.4112357442431167e+000 3.8160173072852479e+000
      -8.2080507407204883e-001 9.5163502589625504e-001
      1.1046013853143025e-001 -9.7686774849842872e-001
      -3.6225968554934662e-001 4.8537931663025580e-001
      -2.9306718272856230e-001 3.6100414075227871e-001
      -2.2932574971271980e-001 4.6962337574810616e-002
      -2.9497230387204927e+000 1.3250834042663604e+000
      1.7091057894196673e+001 2.4465263650493613e-001
      -3.7499322356748344e-001 1.1246014938945339e+000
      8.1907182450792038e-001 7.9821908817955523e-001
      2.5735695431133565e-001 -5.5382111540658130e-001
      3.8167728136149309e-001 -3.8157100610709371e-001
      -3.8657898072506425e-001 9.4743771898975042e-004
      -9.8947831950295884e-002 -4.0970153825624557e-002
      5.6842558812989086e-001 1.2225596333139112e-001
      3.6986290309513603e-001 5.6816476904379876e-001
      -8.1126401152407035e-001 8.8126419457603533e-001
      1.0625320382875167e+000 -1.5009783817172164e+000
      -2.5110177409305108e-002 8.1142496977581124e-001
      -6.5615935205673115e-001 3.2044827568036494e-001
      1.0406916726068647e+000 5.3708493755495401e-001
      -3.8025684566517404e-003 -9.6115923942415760e-001
      -4.2139530122954993e-001 2.9577835842345773e-001
      5.7755810642313166e-001 7.2009373757400608e-001
      -5.4801291001311103e-001 -6.9056556143132652e-001
      9.5797594264665022e+000 -7.0582592199943539e-001
      -1.1885070395503048e+000 -2.1292872339410187e+000
      1.5681832667773503e+000 3.5016686723393997e-001
      1.8953464886728807e-001 -1.8360767860044297e-001
      -5.2019546805601480e-001 3.7899119785090690e-001
      4.7745703334122641e-001 -4.6729918503527046e-001
      -1.7766319914718576e+000 9.3969787368962643e-001
      4.1178068680019955e-002 -9.9317064201517480e-002
      -9.3645123615194548e-001 1.4204392530095535e+000
      -3.3552317488224970e-001 3.7409785396470475e-002
      -6.8979770327214585e-001 -1.0698191470963090e+000
      1.0052031774829897e+000 1.2192204397799769e+000
      -1.0758745296799626e+000 1.8045531711315566e+000
      1.1352079108660504e+000 -1.2756176748069619e+000
      1.9064872339793920e-001 -7.2461775326167055e-001
      -1.0092775322656447e+000 -4.0241970205244282e-001
      -8.9689299356305263e-001 6.1001098665618392e-001
      -1.5871366631599044e+000 -1.1461409212041322e+000
      -6.7256522455891987e-001 4.9719776919285763e-001
      -2.0814307569755170e+000 -7.2174108849724550e-001
      1.6011254934492056e+000 1.3719933021375972e+000
      -9.6521133425149408e-001 2.3851673244093557e-001
      1.0340357016082629e+000 1.6130915064946842e+000
      9.3721242221590575e-002 1.2172492530093795e-001
      8.9527411614254004e-001 9.3523481791038077e-001
      -1.8017718776557165e-001 1.2372201402440933e-001
      -8.7429858364610913e-001 -8.2189051634248989e-001
      1.5854186585734575e-001 -6.5505467453163657e-001
      -4.9194964095834631e-001 1.0170101238485445e+000
      1.0422988475305335e+000 6.8457612632606046e-001
      8.3138844907774279e-001 -8.7413218358482717e-002
      -6.2993638846717370e-001 2.7355612512916055e-001
      -1.9450608054650914e-001 5.0297009120081093e-001
      5.5724202091302866e-001 2.1609347981052596e-001
      -1.8360045687969920e-001 -6.8716573311649032e-001
      3.1103047771505105e-001 -1.2674085314241827e+000
      -1.3570605943762174e-002 -1.3052226982700159e+000
      1.4495864674781880e+000 4.9865011778105861e-001
      8.1168354334934067e-001 3.0470524041204555e-001
      1.3445000204607889e+000 5.8451298642428273e-001
      8.3894591527339868e-001 1.8833846736056570e+000
      -3.6749877751442500e-001 -1.0732094480298242e+000
      -1.0371200106645504e+000 1.2257497105734354e+000
      3.2356123968038386e-001 -4.1431668580796760e-001
      -9.8603761958240532e-001 9.2774604628877444e-001
      -4.7226249311134799e-001 -1.1021192672800986e+000
      6.0282898742016489e-001 3.3872086732241888e-002
      -4.7308502637293054e-001 4.3809014859711937e-001
      -1.2035993160400773e+000 -9.4213891519666818e-002
      -6.9028726839707366e-001 3.7913261802045822e-001
      -7.4691656315634944e-002 -6.4251080509512515e-001
      -2.7525003915887397e-001 2.9360082707301866e-001
      2.0814801336718894e-001 -6.3496310837228465e-001
      -5.0417212467274031e-001 -1.5668424357478725e+000
      5.5052073184802153e-001 1.4549240618289619e-001
      -9.2992886604450808e-001 6.1750615055063775e-002
      -1.2002918380021996e+000 1.3615440481621925e+000
      -6.0514542663135562e-001 -4.4081370109129003e-001
      1.2627944881802506e+000 1.8432101071095752e+000
      9.0779899700365640e-001 -1.3445982025335318e-001
      -7.1587092370685412e-001 -9.6215303449862163e-002
      -2.8298907127993983e-001 -2.0922221941737409e-001
      4.5625788089269403e-001 -4.7920400644924926e-001
      -1.4918310810753435e+000 7.2158342361834371e-001
      1.2657610452245617e-002 4.0329613968012235e-001
      3.2317961669663525e-001 -1.1909781460770947e+000
      3.0173719219872583e+000 2.7971282444572726e-001
      -2.1772166251174474e-001 4.8402369340553747e-001
      1.6148128558161617e-001 -5.8432038770943517e-001
      7.0680480384804312e-001 1.8350466652977734e-001
      8.1339465002802147e-001 7.6836428579021587e-001
      -1.6212738946271501e+000 -1.1045615328597815e+000
      -2.7946859022992253e+001 -1.9765437618061207e-001
      6.8367778005174251e-001 -1.6139725423938081e+000
      -1.6697576883765236e-001 -3.4775408428372506e-001
      -1.0358725275115988e+000 3.4273010939275822e-001
      1.1683852544200635e+000 1.6975750249862618e+000
      -1.7772153122930270e-001 -6.5196954855029876e-001
      -1.3691885593836739e-002 1.1653757591087868e+000
      6.1227258605176571e-001 -4.7035495467856397e-001
      -1.5268341340935769e+000 -3.4605504227690970e-001
      5.3482657697181446e-001 1.2442192444266562e-001
      1.4526257796272095e+000 6.5982280452722142e-001
      3.7689578157001691e-001 -1.6416419196539944e+000
      -9.9137592541100383e-001 -2.9379956980884686e-001
      1.6686349387761061e+000 -2.1198148545143730e-001
      -2.1480960925266052e-001 -1.3350932338180288e+000
      -7.5611282636050881e-001 2.7567434385850350e-002
      8.7203704620058886e-001 -8.0601910602771221e-001
      -1.3344531548153360e+000 9.6889896866544267e-001
      -3.3751217311337641e+001 1.9554434569835812e+000
      -1.2821266495454356e-001 -1.0627649837757054e+000
      2.5471468636441608e-001 3.3509023769086271e-001
      -5.0901985653902038e-001 2.0683698015555591e-001
      3.4217340225562687e-001 4.4404455882874383e-001
      -1.8733647979928975e-001 1.2014841571905442e-001
      -1.9350322074654134e+000 -1.3704506793569169e+000
      1.0939487683637890e-001 1.8934431214201863e-001
      -4.4147622385094293e-001 -2.7826460724082852e-001
      -1.0168602188075935e+000 -8.1994092998412565e-002
      -6.2250866077305755e-001 -4.3434081387313850e-001
      -5.2604832483586128e-001 -2.2792552143750702e+000
      1.9317538080486858e+000 7.0072053182874072e-001
      -1.0156679151215584e+000 2.3884172139411050e-001
      -4.3340420109316719e-001 3.3496254901131250e-001
      4.8024443096543129e-001 3.7118369036587257e-001
      2.9558276534857297e-001 -7.2240806422690862e-001
      -7.9265277812036106e-001 -1.6052850430219761e+000
      -3.2031834967702942e+001 6.4158475517364061e-002
      -5.7499783738574395e-001 6.3230690995807670e-001
      5.0655476397823263e-001 8.9153919626423850e-001
      8.0825968578796994e-002 -4.1064365872856931e-002
      -3.5431552164893998e-001 -5.7884960958303899e-001
      4.0781934915381735e-001 -1.0894889130706707e-002
      -3.1200324604418134e-001 -2.2245173182147576e-001
      4.3605920317142188e-001 3.0879638124769093e-001
      -3.9097143886569774e-001 1.5019779038343631e-001
      2.3615374308774806e-001 1.3802348149176817e+000
      -3.6425923582035685e-001 -1.2608442631484922e+000
      1.1946747984287268e-001 2.4318584198116944e-002
      3.0720724954663665e+000 3.0930873767211980e-001
      4.9121075247626600e-001 -1.2975555871259166e+000
      6.8475227352056689e-001 -8.3805897009640151e-001
      -7.5972271912860923e-001 -1.6516474165200207e-001
      -4.0311155394636833e-001 -4.3660064926489189e-001
      -2.1205337853788556e-001 -1.5940099437312047e-001
      -3.2891983638728192e+001 9.8268174270307351e-001
      -1.3748243487259015e+000 -1.6687208159356484e+000
      -1.3189047904530646e-001 -2.3543715681757221e-001
      1.1135604075436156e+000 -1.2341725520007002e-001
      2.8202352372632269e-002 3.7561282684629055e-001
      1.6468221501776545e-001 5.4699524898245389e-001
      5.1144422873495476e-001 3.3488591216632768e-001
      1.3134675128252655e+000 -3.7451152876517918e-001
      3.3320370766754037e-002 -5.3370951789466436e-001
      4.7610113256368503e-001 3.8498876884285410e-001
      1.3244915600281377e+000 1.1090585201659755e+000
      1.9062334893722028e+000 -8.4920723140232413e-001
      1.4717463481810036e+000 2.8627339324317841e-001
      8.8534660757926556e-002 1.8109816733644965e-001
      -1.1365248918862401e+000 -6.1840679380246039e-002
      -4.3397074747762898e-001 6.3030473690049327e-001
      8.7249293094022518e-001 -1.4389716170440277e+000
      -4.8700553081234743e-001 -5.0658899356637777e-001
      -1.4086350187253496e+001 -1.0554966550859879e+000
      -6.2451519789295296e-001 -8.6892084250019497e-001
      4.0825708353001429e-002 -1.2225767571617872e+000
      -1.2010739682242133e+000 2.5233803598869425e-001
      -1.2473000558392953e+000 4.1518994755634464e-001
      3.6575019273279824e-001 9.3423278315712244e-001
      2.8007068729435692e-002 3.1014802352574694e-001
      8.1880620676672367e-001 2.6273931382916738e-001
      8.7686615746709148e-002 -8.7576205393353035e-001
      -2.9864623895217563e-002 7.4389104828814556e-002
      7.3952472927957161e-002 1.0530529432770128e+000
      -2.6401962698339160e-001 -6.7126534867736865e-001
      1.7675315310962845e+000 -8.8977542791750186e-001
      3.0099900930442586e-001 -4.6413672088865016e-001
      6.5536088709614959e-001 -4.5132539547265871e-001
      1.5835548152032262e+000 1.2213788688594855e+000
      1.0137579387796025e+000 -2.9468729449144027e+000
      -4.8994061083300949e-001 -3.2714563159174831e-001
      -1.5320587674936105e+001 -7.5111719643582076e-001
      7.4781146923245378e-001 -4.1621788844805357e-001
      3.4015950613494644e-001 5.0613634977438049e-001
      2.4040085402709421e-001 -5.5786628074353384e-001
      3.7814398126136356e-001 -5.4471728326016466e-001
      -6.4686551500467870e-002 8.5214535478935005e-001
      -9.2926387610900507e-001 -1.0403050836943646e+000
      -4.2105087778349293e-001 4.4576243432124552e-001
      -9.5867936516761773e-002 -3.8623764446593944e-001
      -6.5396738926232867e-001 -1.7909265637077196e-001
      3.0354495082213554e-002 -3.9371796401051667e-001
      -6.5207903040408599e-001 -1.9504476699849707e+000
      1.9735675975370288e+000 -6.3853378503592306e-001
      -6.9763762401760532e-001 2.3818029834467488e-001
      5.0188669765780833e-002 -5.5028793242095686e-001
      -1.1306380349277143e+000 1.6288017494358802e-002
      1.4282611576187187e-001 7.8216034178106986e-001
      1.1257000798129280e+000 5.3997439684594251e-001
      -1.0967506708247390e+001 3.4121570845590199e-001
      -4.0445783936865237e-001 5.4144693516226783e-001
      2.2996623809770414e-001 -7.8137318213775275e-001
      -2.2774419777277746e-001 4.8527320493238407e-001
      7.8418188351171547e-001 -2.9866250006046002e-001
      -3.6178569632332536e-001 -3.4219084423965040e-001
      -8.7673223159925573e-001 6.0754618864216681e-001
      1.2028099296542212e-001 -7.9691570639419840e-002
      4.4429776626430811e-001 3.2915498946677596e-001
      -6.5426679293754952e-001 -1.5749454208819560e-001
      -6.4502534374299125e-001 -1.3356704110950526e-001
      -1.7415813638783942e-001 5.1344382652073650e-001
      6.3623151827302926e-001 4.8909228607805910e-001
      9.9326439453755710e-001 -1.1841981460934605e+000
      7.1284511589033672e-001 -1.7462936670057887e+000
      -7.0437602294623836e-001 -7.5110599753745233e-001
      3.1537223078057597e-001 -3.8058771369101252e-001
      2.6747405019772841e-001 1.8733831390055977e+000
      1.1604671206215212e+001 -6.2151918858194399e-001
      -1.4908535711797790e+000 -1.2220694237818261e+000
      1.3120567182988527e-001 6.5367531372409793e-001
      4.2771378020932511e-002 -2.4709633360385153e-001
      3.6541383530697419e-001 -2.3922141731752595e+000
      1.0820432045350783e+000 2.2474516268773557e+000
      -2.4007043416679434e+000 7.1476773589467224e-001
      1.2140253676216484e+000 3.3107122435764408e-001
      1.7639183233497961e+000 -1.8007926891657478e+000
      6.9119462750560734e-001 2.6672038695570371e-001
      -1.0873940810559835e+000 -1.4878525785318262e+000
      -1.2417937496190459e+000 1.4520564488248944e+000
      3.5873977517423883e-001 2.2995794883892920e-001
      2.3646051712627250e-001 5.8977544505399881e-001
      1.0848314312383153e-001 5.5433447806567858e-002
      1.4657768552624417e-002 2.1253037500538499e+000
      -5.4026833409250097e-001 1.6085605960484493e+000
      -4.7666954709376552e-001 1.3880020439933352e+000
      2.0599119384082442e+001 9.6072587818081867e-001
      1.9081815950045541e-001 3.6724828692904615e-001
      4.5022043919371979e-001 -2.8332095155885045e-001
      -3.6707270878904108e-001 8.4866657296521364e-001
      9.8371205010719209e-001 -6.7080101244606083e-001
      3.9855694714556744e-001 3.9017049300525780e-001
      7.1786972035588426e-001 4.3777277822543798e-001
      8.2264626220339587e-002 5.0664579697739576e-001
      -3.6070375714018305e-001 4.2396906915705435e-001
      -6.2443093296092989e-001 5.3297574446795802e-002
      1.6193363887376871e-001 -7.6330946410519551e-001
      4.9408370105246091e-001 1.4037028924683286e+000
      -2.9588795075120256e-001 1.1063179200451485e+000
      1.2518781804326709e+000 -3.4912444253155997e-002
      2.4898924907541747e-001 -4.3215321810778973e-001
      5.7720154063425666e-001 -1.1981421470351890e+000
      -4.9174772247874610e-001 -1.2556681632260760e+000
      -1.4349706227908894e+000 -1.4697235974296285e+000
      5.9889604874626841e+000 3.2150963993745818e+000
      9.1881383223757540e-001 2.3577576512928506e+000
      5.2040504792919355e+000 -1.3946868347137895e+000
      5.7127040339459742e-002 5.8886553716131484e-001
      3.0747815557569791e-001 1.3524544794822799e+000
      -1.4183029946198342e+000 -1.4666101860891594e+000
      1.1310803091602881e-001 3.6464677470314073e+000
      5.7969825722774468e-002 -1.9710063919062487e-001
      1.7388047861740752e-001 2.2237108063081004e+000
      4.5931020184424126e-001 2.9494795193267376e-001
      -2.1829557504956010e+000 -1.6759787433338762e+000
      3.1153182587245354e-001 2.0157820941344226e-001
      -3.3132808397618421e+000 2.5245740692553609e-001
      5.0448855180199237e+000 -1.4565423958315855e+000
      8.0022090810284097e-001 -1.9753902137958386e+000
      -6.9404053983386527e-001 -4.0847308341070521e-001
      8.8089419851745909e-001 1.0090517922531106e+000
      -3.2344585978778206e-002 -1.5244677548061072e+000
      9.1946490153017102e+000 1.5455757904975775e+000
      1.7094270227342858e+000 -4.1967775342511932e-001
      1.8549103729234890e+000 -2.0469888359360842e+000
      2.7895039759778917e-001 6.7428853043100156e-001
      2.8871786417305728e-001 5.6484566851606899e-001
      7.9423834761382384e-001 -2.0576088720189639e-001
      8.7657909684031743e-001 2.1026611777386774e+000
      -5.6513567020378064e-001 -2.1944625389766370e-001
      -3.5850355770368825e-001 2.0648134795075181e+000
      1.8404194606231983e-001 9.0275197899699566e-001
      -1.8777666048633863e+000 -1.6342259835314914e+000
      2.5431050200163891e-001 -4.1463271771586907e-001
      6.7486977405407689e-001 -1.0118031300880290e+000
      2.3389916820171033e+000 6.5214941446605793e-002
      3.6733598617867064e-001 1.8687401512760185e-001
      -1.9655409759144726e+000 -5.7826143378675110e-001
      6.1401339807103561e-001 -6.6609536527370850e-001
      8.3870990986471300e-002 -1.6877645797491039e+000
      8.0775253459502512e+000 1.5811754619145200e+000
      2.3443604483904488e+000 -9.2222193404514963e-001
      8.5159658850384679e-001 -7.5454486014053446e-001
      9.3254728376009977e-001 -5.2325424983023824e-002
      -1.2569153574665984e-001 -2.9739463598462212e-001
      -1.7581324473977084e-001 -8.6000813232926376e-001
      -2.7958154182968453e-001 1.6847068531863203e+000
      -1.3453654392827126e+000 6.9858391968157929e-001
      -2.2536063308296028e-001 -7.0319798025499747e-001
      -1.2511584537461802e+000 1.0574783739780758e-002
      -1.9582350502548702e+000 -1.1317622034210268e+000
      -6.0645415008069059e-001 6.7451772069705995e-001
      1.4727659651897471e+000 1.7606855360656299e+000
      2.0653453015033083e+000 4.7279600843713016e-001
      -7.6672308609199125e-001 3.7144563249543136e-003
      -3.0389576534258200e-001 7.0378325993191249e-001
      -1.5989228329867505e-001 -1.0987977942723358e-001
      -1.2952422352653605e+000 -1.4177609108619421e-001
      -5.3183275247316102e+000 -5.1135109907320925e-002
      1.4685732976462775e+000 -4.4286381147983123e-001
      1.6516678518814198e+000 1.2957909280795465e+000
      1.7696733209495291e-001 1.3912296908290771e+000
      -2.5398280925756389e-001 7.6811579138659636e-001
      -1.4620832224312279e+000 2.1243809956839863e-001
      -5.4620200923295315e-001 1.1214115876699084e+000
      -8.1266626307060275e-001 7.0071528039114828e-001
      -4.5515508162229551e-001 2.8876945813335653e-001
      1.1245432959690027e+000 5.6509766071617906e-001
      6.0235987604762664e-001 1.7679576513362565e+000
      1.8972223582189582e-001 8.5786982349478735e-001
      2.8131581321681853e-001 -6.1496582741841332e-001
      1.3368509939082047e+000 6.2802282762222017e-001
      7.3261111218316322e-001 -8.1926891903459212e-002
      -3.7398140593971918e-001 1.9050139422534158e+000
      9.4165029760689534e-001 -2.4510312639288050e+000
      7.4413575406304089e-001 -5.1980512918341315e-001
      -9.3836573408590489e+000 -1.9813418848771742e+000
      -2.5821766466907947e-001 1.3624859386080350e+000
      -2.1074465149850991e-001 -8.7021370786257088e-002
      1.5029222243122373e-001 3.7324978085241559e-002
      2.0427713698082495e+000 -1.2082055153439279e+000
      -2.9940517622769269e-001 6.4482202586648096e-001
      -8.3474035903927635e-001 -7.2258107368343583e-001
      1.7834020797611838e+000 -4.3940440346001797e-001
      -4.1343853548521148e-001 -3.9357004015888908e-001
      2.3333859419724390e-001 -3.5239938905925252e-004
      5.7479619023352380e-001 1.4504693508250632e+000
      1.4616330514997167e-001 -3.0245485353047602e-001
      2.9276451311430540e-001 4.3464127603551110e-002
      1.1167799927128330e+000 1.2424539832391319e-001
      5.0755911141044652e-001 -2.7458099236772998e-001
      1.5448808958200932e+000 -2.5391139958553216e-001
      -7.4541047144523101e-002 -1.0346537097664428e+000
      -1.1464845149161695e+000 -1.4816015360190036e+000
      9.2031195852392838e+000 -1.9884535175606990e+000
      1.4638741326032417e-001 8.7200787635509003e-001
      3.2845807570443941e-001 -6.5303300453206858e-001
      4.8777150046723416e-001 3.5123812121462189e-001
      -7.7574929343870169e-001 -6.9284269445769098e-002
      -6.9334833256444750e-001 -1.5743594688124805e+000
      9.3006603763912588e-001 -5.6459660351519247e-001
      6.3742775410360508e-001 -1.6673591442011346e-001
      -1.7812440332013331e+000 -2.1242545937189844e-001
      4.0016945784763719e-001 8.5169555092089011e-001
      1.1831589815206538e+000 1.7104144399765364e+000
      -1.2422005840673336e+000 8.3124656997272639e-001
      1.0687385207005418e+000 9.5153955345730190e-001
      -4.2594716168358682e-001 4.0824873147018187e-001
      5.3675994752971823e-001 -5.2549731735968330e-001
      3.6407673847663419e-001 -4.1958054104342057e-001
      2.0198339226088127e+000 -1.9605497247599267e-002
      -1.3325726898556545e+000 -4.6686657262752423e-001
      2.3161449290793104e+001 -7.1000078032022029e-001
      6.7895944381212836e-001 -1.3455043192284571e-001
      8.7763754314630893e-001 1.7317202240937568e-001
      5.3756696016942829e-001 2.1152471859676096e-003
      -4.6782039096882605e-001 -1.1870374576671274e+000
      -5.9095141838488330e-001 -5.2996799755685742e-001
      -6.3595987381514640e-001 -1.5890416213726128e+000
      1.8535809081495191e+000 3.2119877255267931e-001
      -6.4348078211426285e-001 -7.6569365196452310e-001
      7.1196969704060042e-001 1.8904268607295527e+000
      -3.5477955127737787e-001 2.1692333209480755e-001
      -1.0189994017185349e+000 1.0182723632097828e+000
      2.4808205913261125e-001 -9.1440125348557000e-001
      -2.1183654534070757e+000 -7.7694472509294688e-001
      4.0679493820745755e-001 -1.9787596528807812e+000
      -4.7368718931473969e-001 3.5601898892926703e-001
      8.5471053571888289e-001 -1.6459296541625481e+000
      1.2133637751114588e+000 -6.1802044577598714e-001
      3.2324429486824705e+001 -8.5190319224206168e-001
      -1.0431903868169126e+000 1.1012587989247717e+000
      1.2724478718610570e+000 9.3866807947311426e-001
      1.3792970276090526e+000 2.3844053297027534e-001
      9.2919483022224347e-001 1.8323111930074838e+000
      -5.0735501460317009e-002 3.5966824051276308e-001
      -1.5440093352905644e+000 -1.7596348126511112e+000
      1.1066354754029435e+000 -4.0845033907386241e-001
      -1.9977041459841458e+000 -7.1599976516084018e-001
      -4.5882549403213174e-001 2.9605836714681333e+000
      3.8854911806302000e-001 -2.4989433095280192e-002
      3.8754457091766270e-001 3.1177245347196086e-001
      -1.1325928174300404e+000 -1.7203343340897583e+000
      -6.2307197875448095e-001 -6.9257519494303277e-001
      -5.3302707688384895e-002 3.0446730348750517e-001
      -1.1741281118560050e+000 -8.9364745687136427e-002
      1.1482100708142864e+000 -2.8934597088335634e-001
      -1.0850201401889574e+000 -1.2032431815437765e+000
      -3.7786439146756869e+000 8.7721592327207698e-001
      -4.8725649555722073e-001 2.0319091926954810e-001
      1.6803807975454697e+000 2.0482467060309246e+000
      1.2842205662541413e+000 -2.5849966950534065e-001
      6.1822145658387584e-001 8.8028788216355680e-001
      3.4395447108420762e-001 4.5769444743411974e-001
      -2.4175466597436396e-001 1.7220572980023169e-001
      4.5262847016594754e-001 -4.4749288272629856e-001
      -2.9582382342444646e-001 -3.1121842927806602e+000
      3.8413852583581232e-001 2.5547252588432170e+000
      1.8884639501048277e+000 9.5476337053529758e-001
      9.0191967953793128e-001 9.9770075301492275e-002
      5.1060934141366265e-001 -1.0264254581592032e+000
      -2.9851739878918332e-001 -3.7611968378892707e-001
      5.6343499944006403e-001 -2.9458875268457835e-001
      -6.8341629438461296e-002 -8.2273758754182647e-001
      4.2067064515736008e-001 -3.4276646246005854e-001
      3.6247201065062629e-001 -1.2855976992237090e+000
      -3.3880288717781988e+000 1.1503271065943321e-001
      5.3024312681924979e-001 -4.0958272990633021e-001
      -1.2923189445506769e-001 9.2934309332603560e-001
      9.7808564365435369e-001 1.3003156218071639e-002
      -8.1577602100724655e-001 -4.9871451117565579e-001
      -2.7135670470072143e-001 1.9990509110577193e-001
      4.0552636134664038e-001 1.1901975432435863e+000
      3.0041196633978418e-001 3.8430478329349488e-001
      -9.2036736804094721e-001 -1.7302032946545192e+000
      6.0892145494427596e-001 2.0425280547405613e+000
      5.1951746750884242e-001 9.4418733420956835e-001
      -4.8896538518340454e-001 -3.2281051974489574e+000
      -7.0183461421134308e-001 -1.3310081574931263e+000
      -1.2996533986222423e+000 -1.1788348426436890e-001
      -6.8139653149951596e-001 2.9463438084364958e-002
      -4.8399029761064005e-001 2.6866035650968445e-001
      5.0620722774809501e-001 -9.6076926895896009e-001
      3.5576394858580988e-002 -1.4199780036133272e+000
      -7.4644058790877423e+000 -1.7510141006192361e+000
      6.8800446045548980e-001 1.0638295557022341e+000
      1.4653622734613680e+000 7.5228054950409085e-001
      -1.2598741428910257e-001 6.8593878065205449e-001
      -1.3836660353223487e-001 8.2229755426404816e-001
      1.6668814603050971e-002 1.2846803557038435e+000
      -7.7540556955082952e-003 -9.7156062882703353e-001
      -2.0081498636758370e+000 -2.5966155091550963e-001
      1.4386454310819330e+000 -1.0382124946402576e+000
      -2.7858746545540070e-001 1.0861535474601098e+000
      9.8787307664372007e-002 6.5329713445389337e-001
      -5.4969755752165772e-001 -1.7189292292552714e+000
      -5.5128774591991114e-001 -4.3865028501831627e-001
      -1.2276431439746840e+000 9.3192212665929947e-002
      4.7736441048775508e-001 -3.3012233873722791e-001
      1.0409218932557283e+000 -8.8545981896391256e-003
      7.9851829717893974e-001 2.9464067611209507e-002
      6.1995938244862536e-001 -2.5699510393923548e+000
      -2.3837330699467199e+001 1.1849441672695292e-001
      -1.6192619742334199e-001 -8.5007847019551008e-001
      6.4458041797041432e-001 1.1592032888056414e-001
      -8.2766961049907953e-002 1.3740759569109064e+000
      7.6530214986196143e-001 2.0659742573741571e-001
      -1.7310536951591522e+000 1.4652213058048100e+000
      3.4405210859487972e-002 -7.9944309078558218e-001
      -1.1816767747117516e+000 9.3905725296582199e-002
      7.7878491590553567e-001 5.4792852244195889e-001
      -1.5207223766380931e-001 1.2344290376495650e+000
      1.5949886259235562e+000 5.3930616860252911e-001
      -2.0538664775335963e-001 -1.6349215603096134e+000
      8.5242394091394369e-001 -2.6277309455146475e-001
      7.4761463131143913e-001 -9.9265096399144981e-001
      4.5489548204571534e-001 -1.2313199879762633e+000
      6.0998942777124421e-001 -1.1726437105822729e+000
      8.1861064281373475e-001 -6.1812766767373550e-001
      4.7142138518667126e-001 1.0246054816461059e+000
      -8.7657729187898459e-001 -2.1287235212861626e+000
      -3.8214561770528133e-001 1.2373319916405914e+000
      3.3793904657818180e-001 -1.3973216589421136e+000
      -1.6490170133576948e-001 1.7211189541283398e-001
      -6.5318878263597036e-001 4.5364632566477714e-001
      -1.4083350805757839e-002 -8.1034555549189025e-001
      -5.2973497348142595e-001 7.6514210418954154e-001
      -1.0750162434707733e+000 -3.3195172409843365e-001
      1.2616398150024906e+000 -2.8225044446579484e-001
      1.9463974622019126e-002 6.8520473051431674e-001
      4.5566803889171420e-001 -4.7916271131670650e-002
      -4.3095384327012060e-001 -1.4818435233861118e+000
      -7.5169260455962700e-002 -8.9418894302068230e-001
      2.1616988840611178e-002 -1.6094132671196739e+000
      -2.5058361895733222e-001 4.4886016082265745e-001
      -2.4175873956070806e-001 -8.3973257610371421e-001
      5.2022935779763047e-001 2.4545895133397559e+000
      -1.0052690539792426e+000 3.9839968086358790e-001
      4.0325284316912189e+000 -1.2910478467386914e+000
      -3.1418399165977906e-001 -9.2172488356862342e-002
      -2.0111612600399867e-001 -1.5873659250668148e+000
      5.6698770148774180e-001 4.1941461576931716e-001
      -1.3140756741176565e+000 -8.8849155400728352e-001
      1.8614588787384543e+000 1.3405275357812352e+000
      -6.0293532318343779e-001 4.2293654716379003e-001
      1.4041510909729358e+000 6.0538866909163550e-003
      2.7839017345175425e+000 1.4763590465288361e+000
      2.4030324229454536e-001 -7.4523299788974207e-001
      1.6149998018802425e+000 1.1575692659546929e-001
      1.1798444366149357e+000 6.7366368524282683e-001
      1.8443175618865090e-001 4.7872161545043224e-001
      9.9789329586992259e-001 -7.2385037047420098e-001
      1.7732366130299531e-002 -7.7621702508166301e-002
      -4.9628573057266173e-001 -8.2116939596701588e-001
      -8.4107188535942023e-001 1.9389265202392336e+000
      2.0300554297650262e+000 1.2327316220387299e+000
      -2.1467162377646559e+001 -6.0238356757307643e-001
      -2.5128945164856940e+000 -7.9301455041213820e-001
      -1.1413989947284213e-001 -1.8255675482766895e+000
      9.4187714020627575e-002 -3.0616879621527693e-001
      -1.0776223914658926e-001 -4.1412625974695416e+000
      -2.7698265694300819e+000 4.6479239336223159e+000
      -1.7112700552950053e-001 -1.2032653953862507e+000
      2.3570339625127397e+000 -8.4373399328066512e-001
      -5.7857002959510451e-001 -1.0339641735814220e-001
      9.6404660874790593e-001 -4.8310024820574331e-002
      -5.3285871509134930e+000 2.1962978187874125e+000
      -8.3477759645173055e-001 -2.2554492865913936e-001
      2.3264866073560331e+000 -2.7314621743525103e-001
      1.8783713702547264e+000 -2.3279737598326763e-001
      7.7974795613666770e-001 -6.6240167580227705e-001
      -4.4504186591872186e-001 1.0679056595665399e+000
      2.3100136198940673e+000 4.0982570275857819e+000
      2.8884326631752901e+000 2.3742516012028565e+000
      -3.8618210852012478e+000 2.1184612085443431e+000
      8.7250845207372629e-001 -1.7554525878565903e+000
      -1.2840460902185141e-002 -2.1284111842558304e+000
      4.6934318036616574e-001 -8.8275632335645029e-003
      2.3645361760915402e+000 -2.1752891196942237e-001
      -6.2932906927514742e-001 7.2288305893309390e-001
      -6.7265220327301298e-002 -4.8205412022590566e-001
      6.8142962105016280e-001 3.0689031414179724e-001
      -1.6365812651160587e+000 9.7742010512939970e-001
      5.9566456556880898e-001 -4.5171498496637813e-001
      -1.0704092448889897e+000 -2.2830968505101759e-001
      9.7082423569665788e-001 8.9547116380732220e-002
      -6.2073660353616356e-001 -9.8903169788193190e-001
      -2.6479592126729562e-001 -6.1565831220657241e-001
      -9.9157644307918735e-001 2.7577857676549654e-002
      1.0047505170515623e+000 6.0905699139956682e-001
      -4.6309440447350014e-001 1.6115576012964120e-001
      1.2086939818383968e+000 -7.9860830360603252e-001
      3.4841524651741911e+000 3.1710237466429563e+000
      1.8464172126539309e+000 6.6026758664767771e-001
      2.4407281574628978e+000 -2.5758423341566199e+000
      1.1207454646590418e+000 -5.4916830045722065e-001
      8.4356808218820592e-002 7.9132294401154291e-001
      -5.5212455762052770e-001 2.3135445061032425e-001
      2.5654266078933943e+000 6.2714210214221833e-001
      1.8160391568307814e+000 -4.2115590578445317e-001
      -1.7690052552348225e+000 2.5038131305153120e+000
      -1.2729382392270174e+000 -1.3138378576114240e+000
      -1.0491564451340833e+000 -1.9708634019387175e+000
      -9.1359603423230917e-001 -1.1130370998470121e-001
      -1.5507596509828321e+000 -6.3982763705653611e-001
      2.9967694193340879e+000 -1.4348361279470134e-001
      -3.2349439641129124e-001 -2.3648013728358047e-001
      -1.0419579685816771e+000 -1.0858182394447760e+000
      -4.5601065785616637e-002 1.5521188174051033e+000
      4.9465114224703016e-001 -8.3987623340928911e-003
      1.7706268204505896e+001 3.4982172933359701e+000
      6.9714615484777892e-002 1.5619885752487292e+000
      1.2136937400629835e+000 2.2486572884316416e-001
      1.5460437875514914e+000 -4.5531339601031823e-001
      3.8943838180116463e-001 2.1762433661583802e-001
      1.8865850597120387e-001 -2.3282924386207160e+000
      2.9714036045927772e-001 -5.1759183379891972e-002
      -1.2602530117987951e+000 1.8150703347456457e-001
      1.1065034722973046e+000 -1.0763294253256535e-001
      9.6652009418205023e-002 -3.6546817043666097e-001
      -1.9340500217725818e+000 -1.0197092105637804e+000
      -1.4307101241569919e+000 1.5383280388929699e+000
      -1.3945813705258445e+000 -1.5467636146958874e-001
      3.2054439183779433e+000 -3.2828499325016286e-001
      6.3231319924616081e-001 -1.4484111526238181e+000
      -5.1594991899104312e-002 2.4369313328930757e+000
      5.0169656680398556e-001 1.2253305349355756e+000
      -3.0390278045048924e-001 -1.1435340940205316e+000
      3.8226623368252994e+000 -1.4712525832547085e-001
      5.5887145106701563e-001 1.5133654959519624e-001
      7.7238613954152713e-001 -1.2010525594739685e+000
      -1.2919555882885939e-001 -9.4651955417754641e-001
      7.7937078998842346e-001 -7.1348449137887948e-001
      -3.7397592290762643e-002 8.3424874081209621e-001
      1.1959484803056442e+000 1.7907302206561179e-001
      -3.1403368747680022e-001 9.9443963886220144e-001
      1.6934850831175494e+000 4.7262888275675163e-001
      -3.8771376354337600e-003 -5.6262109597681231e-001
      -8.2729769630933958e-001 -4.3969440394359199e-001
      -2.2556026428968967e+000 3.9597912963287457e-001
      6.1231846253459121e-001 3.0926532160545545e-002
      1.7841810466318404e+000 2.2523509775548334e-001
      1.7477567375105282e-001 1.4592113290714810e+000
      -5.3747841575490785e-001 1.2830602397510253e+000
      -1.7289681837054076e+000 2.9368755936817087e-001
      1.3042653195717497e+000 -4.8188498494238402e-001
      5.2207449948063598e+000 2.0298336969724776e-001
      1.6159345940070926e+000 -1.6651205544744425e+000
      -1.5420554896030565e+000 1.1233339632786841e-001
      1.8312659409506922e+000 -1.6557536173155176e+000
      2.2221980331245992e+000 -3.2509573263873870e-001
      -4.2730427707831420e-001 3.8534815113169629e-001
      3.0774258535817491e+000 -1.2069404341255051e-001
      2.0139997493137058e+000 6.4318723753289275e-001
      -3.6282636444119531e-001 6.7693581915967271e-001
      -7.1301931799369955e-001 6.9222929472442540e-001
      1.7378304400064031e+000 5.9602114950738350e-001
      -4.9201806013507926e-001 -2.3814763830333641e-001
      1.6026004940773553e+000 -6.1513864763411308e-001
      9.9036951436084464e-001 -1.4007249926452723e+000
      -1.3033239688245143e-001 2.5303896404287018e-001
      -1.9923970973156970e+000 1.5639874719526097e+000
      4.6789397008251665e-001 1.6607277890730182e-001
      7.4756189877617937e-002 -5.5240578860263589e-001
      -1.7112480316334535e+000 1.6731528881160423e-001
      6.4691881759932579e-001 -1.3319044130013817e+000
      -1.1417783636030887e+000 4.2476709916046929e-001
      -3.8271920284301431e-001 3.0545573498194545e-001
      -1.5366987799952708e-001 -3.8117684799630192e-001
      -3.5248336469082575e-001 -5.9510352490301988e-001
      -1.0167349040524396e+000 -2.9788359885754425e+000
      2.3883263354081348e+000 -1.1777665587199045e-001
      2.5502705523117292e-001 -4.2320021356606707e-001
      -7.2992880815957617e-001 4.5525002422235256e-001
      9.6666517254936912e-002 -2.8092933437133660e-001
      -3.1492462403221355e-001 9.4545292327812358e-001
      -3.7510109115893442e-001 -1.0954149391434924e+000
      -9.5393684519952934e-002 -6.7068791905409526e-003
      3.0660577575458992e-001 1.9302642996609154e+000
      -2.0129475729273483e+000 2.7158380120102588e-001
      1.0296413370876540e+000 5.7776276390514192e-001
      1.6750143252278655e+000 -5.4832432353999323e-002
      9.5628620836123410e+000 -4.1618430116697719e-001
      6.4600117172209370e-001 1.6493511249484532e+000
      -5.0556551399987792e-001 -3.4819755354722215e-001
      8.4036580286558571e-001 4.0116991050524914e-001
      -1.2410167025870238e+000 -5.8302381727893392e-002
      6.4692079767602727e-003 -2.7009696848465153e-001
      -1.4836893762875334e+000 1.0874795563252734e-002
      1.2663971807142167e+000 8.1304095094402606e-001
      -1.1939247748206798e+000 1.3245664956840859e-002
      3.1974253547082188e-001 6.5334254880853715e-001
      -5.6138375102303839e-001 3.7658609903255424e-002
      -3.5629001172281044e-001 3.6500821406345951e-001
      -1.0283941740801399e+000 -1.4531840391069181e-001
      3.4066851772307261e-001 -8.9179012591758444e-001
      7.3357045736802673e-001 8.9213660809988526e-001
      2.0105391918753726e+000 3.5886211642925014e-001
      -4.9644995154631261e-001 -8.4069150462393094e-001
      1.2858680813149954e+000 -7.8279160205552123e-001
      -3.7221813043854945e+000 -1.6582054316906170e+000
      1.4415161483351824e+000 -1.4951129119574704e+000
      9.6361560391139578e-001 4.4612766058541709e-001
      1.3507839460213455e-001 -4.9111773414845311e-001
      -2.1608920297235485e+000 -1.1895068610160195e+000
      -2.9819975964844830e-001 -1.2491122215100742e-001
      -1.8347161627069857e+000 -1.2703810850539732e+000
      -2.2413898408206445e-001 -3.7426895994440779e-001
      -2.0522652370207641e+000 -1.6147047932159018e+000
      -4.3544668903579853e-001 1.6502649256133493e+000
      -6.3084705389427065e-001 -2.2042391637829502e+000
      -1.0896529300090354e+000 -4.4198610875379613e-001
      -1.7905871511858262e+000 2.7745830113595354e-001
      1.0342066674143713e+000 -8.6807538944384577e-001
      -4.2495446721806041e-001 4.0976019189327700e-001
      3.4441554495350424e-001 -5.3894372160851456e-001
      -1.5566932473646757e+000 -7.6948032453496062e-001
      -1.0382651044808933e-001 6.0093415420462415e-001
      -1.6659024986253255e+000 3.1178625169279062e-001
      1.8387227693494768e+000 -1.9243242064520247e-002
      8.7312377376654093e-001 7.9720242274984066e-001
      6.4902685446014852e-001 -4.3099007290015723e-001
      -1.8293014351153125e+000 -1.7472894724819050e+000
      -2.0074462181302138e-001 -3.4260751708420362e-001
      5.5149757180407022e-001 -3.3999000557731769e+000
      3.2678245805257539e-001 1.4739827459644889e-001
      -2.6798593284027117e+000 -5.1553833412493200e-001
      -7.1585366792010752e-001 3.5559096883155141e+000
      -1.5068593962123609e+000 -6.4761093910061651e-001
      -2.4889355860016811e+000 1.7207120872271513e+000
      1.5050126287470145e+000 -1.1311295182746466e+000
      -8.7517962840335750e-001 -4.8147848918003783e-001
      -3.9122045572903014e-001 2.0369873195470727e+000
      2.3992244803529666e-002 1.0626400125032289e+000
      1.3524714471189805e-001 7.5434637085870315e-001
      -1.6589351525647048e-001 -4.7182192819711538e-001
      1.6667199003792479e+001 -6.5417642873533410e-001
      3.7341710166600633e-001 1.0615959053328644e-001
      9.4611431771096632e-001 1.2639543993772442e+000
      1.7870532886785481e-001 6.9182004222399021e-002
      -1.7644897358648299e+000 -5.9208431382202054e-001
      -5.8692582009129513e-001 3.9844409711819778e-001
      -2.8372654494484900e-001 -1.5130371029460541e+000
      -7.7627830918084328e-001 -2.5340655970997470e-002
      -4.7244671054152193e-001 3.1905180897721686e-001
      4.1039080951777239e-002 2.7215895103815888e+000
      9.5426010132673189e-001 -9.3542534292538962e-002
      -1.3529570700738180e+000 -2.0106727002093487e+000
      1.3570896401191024e+000 -1.1187297835535375e+000
      -5.2344425564176067e-001 -1.4139366316361097e+000
      -2.7887060383199613e-001 1.5861529821278979e+000
      -1.3087639644630662e+000 -1.1383916572086119e+000
      -3.6578341906241665e-002 -1.2815854650741041e-002
      -2.7589113518414674e-002 2.7664010650872328e-002
      4.3595585120476974e+000 3.4542849488703309e-001
      2.0922681620292085e+000 1.4334602115220679e-001
      3.6346423914306214e-001 1.0910808814268480e+000
      -2.9882534199426286e-001 1.6175691346516227e-001
      -6.1248613247740868e-001 1.5638283660081806e-001
      -9.9580411532954605e-001 7.8721040190901248e-001
      1.1472413678534832e+000 -1.0362761995558549e+000
      -7.0270007381230470e-001 -7.8104197870817604e-001
      -7.2334346531833993e-001 5.3901866088903561e-001
      2.4956850693141205e-001 1.2212872074677592e+000
      6.6640602669845594e-001 1.7530881521895285e+000
      -9.9678564625798016e-001 -1.4978103327167160e+000
      -1.1086109703847267e+000 -5.2191695098796809e-001
      6.3382393906849932e-001 -2.1396217150385697e+000
      -6.8866620003494833e-002 1.2262090321754564e+000
      -2.3363227877753212e-001 -1.5438774802972095e+000
      1.9749629961423498e+000 5.7204077789848395e-001
      -3.5444407779414694e-001 1.4618726840566008e+000
      2.4555908071146998e+001 -5.4704973959393714e-002
      -1.3623473367841856e+000 -9.2839228498087012e-001
      7.8205208830342554e-001 1.5921891876221688e+000
      4.7844050859045063e-002 -2.8510208382821117e-001
      -8.4106385565948649e-001 4.2579225494780398e-001
      2.7971145936188485e-001 4.0216244340054630e-001
      4.7627194403453399e-001 1.7834216371252290e-001
      5.0935775759461610e-001 6.5912355147070734e-001
      -3.3203446516336405e-001 -1.3682454951120515e-001
      -3.2335717650824286e-001 1.3705654062514019e+000
      9.0018329786856893e-002 7.7919024862661845e-001
      6.7369223976413165e-002 2.6643132725950734e-003
      -6.7001233162551938e-002 6.5107173845638389e-001
      -3.6435488049502134e-002 4.9281626925974042e-001
      -2.2402043439703753e-001 -5.5535134351737236e-001
      -8.0262353326991664e-001 3.5645064885694501e-002
      9.7020278057356968e-001 -1.0989355152135378e+000
      8.2367740522912278e-002 5.7663211163084427e-001
      -1.7670755593229364e+000 2.8098034121945809e-001
      1.3666385614866885e+000 3.6817817292162630e-001
      7.2543062736873365e-001 -4.4070968166590030e-001
      7.1365723601276920e-001 2.9076277664464040e-001
      1.1600833374982005e+000 1.4213674816579331e+000
      6.3207570252654305e-002 2.1075314960584896e-001
      3.2331266288675926e+000 -2.1595706869662223e-001
      -1.0551485967215029e+000 1.2392032941900812e+000
      1.1453040700100450e+000 -1.1980695573132527e+000
      2.7317536298668166e-001 1.0985655981888611e+000
      3.6612315826739467e-001 1.5194852114073407e+000
      -5.0562750795859379e-001 6.7001129997126563e-001
      4.5364670785046390e-001 1.9272210472425124e+000
      -2.0885795769554325e+000 -1.0265824633636265e+000
      -6.8276252072473342e-003 -6.4695241411630344e-001
      1.2522998441600617e+000 3.6189382995109287e-001
      -1.6427602483586183e+000 5.7776736275032192e-001
      -5.7651952759956981e-001 1.3090332171898963e-001
      4.7972304484233490e+000 -2.9178925423611102e-001
      -2.0868061289248487e+000 5.9143373224528850e-001
      1.5155985765687444e-001 -6.0824945123676688e-001
      1.0291389953121957e+000 6.0876499945900631e-001
      8.2261719770029174e-001 1.4381879707643894e-001
      -1.8611305189198601e-001 1.0278901622306431e+000
      -1.2835784200437679e+000 -2.8448469524729292e-001
      -4.7470322555045508e-001 -4.3260107582366131e-001
      1.2041972116159212e+000 1.8054877660349395e+000
      7.2867602511183283e-001 1.2762848825947606e+000
      1.5095628923446671e+000 1.3187817273541760e+000
      1.2909733820033344e+000 9.3926890797452978e-002
      -8.2704019803959705e-001 2.2347498168659401e+000
      4.1536122654374830e-001 -7.2832029801434950e-001
      -3.3173402214387593e-001 7.1088882990105251e-001
      -1.6577274437994050e+000 -1.0326020739186268e+000
      -3.5245676464186693e-001 -6.4485401505359041e-001
      -1.0396104700799016e+000 -8.8867060060210468e-001
      -2.8126216981887023e+001 -5.1292527863143977e-001
      -2.4660472889669087e+000 1.9501868822679436e+000
      4.0829796606599983e-001 6.0233824270873426e-001
      -3.5890256681692168e-001 4.4362973525133959e-001
      1.9650522752921993e+000 -2.5430883123306741e-001
      9.5466928646300475e-001 6.1534412539605110e-001
      -8.7777037260926422e-002 -6.2750717085544999e-002
      3.1518355403241918e+000 -2.7976390386132133e-001
      1.3363023670015404e+000 -5.1187045365822903e-001
      -6.5226654677498652e-001 4.7876339248346422e-001
      -1.4472101886385096e+000 -1.4282337322055338e+000
      5.0754189356284640e-001 1.1047100148789966e+000
      -7.7322116756023934e-002 1.7409839698437377e+000
      -1.4850664385954827e-002 -8.9059072669086178e-002
      -5.8628793389518119e-001 1.1955197085472729e+000
      1.4884665566739124e+000 -3.0821409672054695e-001
      1.5469565979587788e-001 1.8901522974198595e+000
      -9.1354211526061946e-001 7.2293660399695536e-001
      4.1966463506910552e+000 -6.1731935160888740e-001
      -1.9937388929721409e+000 -1.8816842575020394e+000
      8.9225473352621376e-001 -1.3499294911841777e+000
      -3.6214351040852510e-001 6.7977638359189230e-001
      1.9690802529735467e+000 -1.9228041412558106e+000
      1.0559174295294111e+000 3.1257068504420902e+000
      -3.0250767538382139e+000 5.7894559563397296e-001
      3.6703487544733622e+000 -3.7304536748768813e-001
      -1.1490322458699911e+000 4.6227801768104698e-001
      -6.4949434517721216e-001 -1.1820703589293364e+000
      -2.8798440069067205e-001 3.4585201509663421e-001
      1.3478121602161490e+000 5.7708183408920621e-001
      7.5309742412197056e-001 -1.8569076104597776e-001
      1.0562838322054695e+000 1.0027601801667092e+000
      9.0003898129031001e-001 2.2655004137156265e+000
      -7.7791638110708383e-001 -1.9661360170103099e+000
      -1.0096766187048352e+000 2.4348168186734438e+000
      7.2775844187841521e-001 2.5313642623055999e-001
      -1.5728675607163936e+001 3.0850210682960316e-001
      8.7438662055648209e-001 -8.6325875596832735e-001
      6.1941331614152251e-001 -9.8548506069398578e-002
      3.9009809035570941e-001 -8.5809084801505275e-001
      -1.1236018681784861e-001 1.0122245710926241e-001
      -4.3335704249899354e-001 -2.7499302773243584e-001
      5.9149669714898523e-001 -1.0996609198010274e+000
      7.1306175294411023e-002 4.4037214595399277e-002
      1.4016994072603635e+000 1.6345743139904563e+000
      -1.0162629858567882e+000 1.8817800220739707e+000
      -1.4486720770422623e+000 -8.0964243460576135e-001
      1.9503946556299936e-001 1.9185031331706055e+000
      2.0884463310209017e-001 1.2765296919984739e-001
      -3.1378467396556059e-001 -2.1402253838534441e-001
      5.5088837778819832e-001 5.1420771094899087e-001
      -1.2298948003346559e+000 9.7775312087338728e-001
      -4.7864537152681835e-001 -1.3477371975479435e-001
      1.0316046430643466e+000 8.4102916233420133e-001
      5.1138561303827510e+000 1.1955151952206009e+000
      1.7342190131267705e+000 -2.9141284029678478e+000
      -1.1307668088332099e+000 -8.3158589291584095e-001
      6.5934854644383212e-001 1.2675250460174509e-001
      -3.2945657146144197e-002 3.1005185882831227e-001
      -3.0056198599406214e-001 2.4739756440952192e+000
      1.4889693048168082e+000 -1.3622387257860236e+000
      -2.0955564971113989e+000 -4.8050735271457379e-001
      -6.2885165188838910e-001 -2.9096070131140184e-001
      9.8359124159461064e-001 1.0230014509829524e+000
      -1.8645760450303377e+000 -1.9529610577427898e+000
      -2.5742559140860903e+000 1.5079342211665641e+000
      -5.2718061863034660e-001 1.0134305787672124e+000
      2.4125476861451851e+000 5.8943438093118627e-001
      6.3134341211433687e-001 -1.2112870458071630e+000
      -4.8436253096477488e-001 1.0589054377943821e+000
      -5.4005750502003369e-001 -3.6424288369822883e-001
      -2.2184233279496565e-001 7.9658483382541367e-001
      -1.0311086086695028e+001 9.5528404943877931e-002
      1.3522853068887046e+000 6.2205080393509138e-001
      -1.0221738975050803e+000 -2.9005440514147565e+000
      1.4836162805697964e-001 1.1192139878525241e-001
      7.2205340728622658e-001 -6.0930665650144256e-001
      -4.2700097468341880e-001 -8.8282633727539384e-001
      1.0993328098599340e+000 -1.3733594931380473e+000
      5.5657193192320242e-001 7.3852101700702300e-001
      -4.0952747509644888e-001 1.3825094356632113e+000
      1.7864596598254472e+000 7.5640471908274298e-001
      2.5656134313185079e+000 -8.7234310188951092e-001
      -1.3965920791747935e-001 2.0099351439170059e+000
      -1.6738676316930741e+000 1.0460434966530849e+000
      6.0003359779221821e-001 9.6173512013058438e-001
      4.5852261779603393e-001 -4.2158664355473663e-002
      -7.7044438903866330e-001 -2.9017236951840381e-001
      1.6541453128506201e+000 1.9671294877537607e-001
      2.1650700928840805e-001 3.1680392503423149e-001
      1.8219119923070220e+001 1.4043519079168019e+000
      1.3496407393073957e+000 -5.3884034237567235e-001
      7.5153387510984138e-001 9.3515787182562071e-001
      4.0280422560583207e-001 -4.2672271785293475e-001
      1.6856094647788817e+000 -5.7316504155587689e-001
      4.3411768579461213e-001 -1.0984205261430315e+000
      -7.1804904912318679e-001 9.2172676237861462e-001
      9.9340389199016621e-001 -1.5739551991623577e+000
      -5.0016552049433505e-001 2.5541127840227601e-001
      1.6039889936553606e-001 5.2420650931913082e-001
      2.2786368796433556e+000 2.3196314275956093e-001
      6.4266925903414351e-001 8.3647645504014448e-002
      -6.0531491710712135e-002 1.3951918113987321e+000
      4.3031419850171032e-001 2.8926977109423685e-002
      2.5334190869840553e-002 5.5758412592920525e-001
      5.2062216782586146e-001 -1.1510087956027619e+000
      5.4110860592505339e-001 -4.6602611014741868e-001
      2.6703362399730590e+000 -2.0030149213832282e+000
      1.6024061424733532e+001 -5.2216264377429333e-001
      1.3834426446976547e-001 2.8802725095949228e-001
      1.3985360116262611e+000 -1.6601958256460430e+000
      -7.8580667782414237e-001 3.5474224982921276e-001
      1.8229500491360315e-001 3.0909475140029402e-001
      7.1082217830581162e-001 -6.1134376509856592e-001
      1.4400946209391876e+000 2.8384168500875806e-001
      2.5204277579546384e+000 -8.7473062145990443e-001
      -2.0531650826123832e-001 5.3090050928272536e-001
      1.1136111967460542e+000 -1.7994831127036343e-001
      1.2222908007491113e+000 -1.0243223463666624e+000
      1.3872055966409820e+000 4.1420971817956675e-001
      -4.7090982460848885e-001 -1.0186351212110960e-001
      5.4941135514846851e-001 -7.0567254161162762e-001
      8.4323814997839275e-001 4.1304331314036019e-001
      1.6501193191676218e+000 -1.1564452570754453e+000
      -7.7040913670343425e-001 -1.0975415637807120e+000
      -9.1492398238668027e-001 -5.5968290016434896e-001
      4.1413404134108180e+000 2.2954842936263127e+000
      2.1472915516984643e+000 -1.4303896244719132e+000
      -1.3916449940952680e+000 6.5518261575043557e-001
      -7.2448255312268028e-001 -1.3975163223254674e+000
      2.2418271706312116e+000 -1.3135651507424930e+000
      6.3306911614060624e-001 -5.0071995703511785e-001
      -9.9076913713199199e-001 1.6768028553395881e-001
      1.4924946526443728e+000 2.5236528225276866e-001
      -1.9078197577223877e+000 -4.8580576965571026e-001
      -4.2674744901431960e-001 -3.8575937047102327e-002
      2.0600948227428266e+000 -1.2082674557643445e+000
      -1.5140962595037115e+000 2.2748658584090342e-001
      2.7226945401040642e-001 -4.2294391441202944e-001
      2.8056292547212175e-001 -4.8744291999125655e-001
      2.2237625261868326e-003 5.7494365682806414e-001
      5.4490830464098250e-001 -1.2618793209403465e+000
      7.1026649501487082e-001 4.8478913007123337e-001
      -4.6688396395220788e-001 -8.3740323496347291e-001
      -1.9927609222063387e+000 -6.3980445767162841e-001
      -7.9710682811616684e-001 1.1596183032151388e+000
      -2.8368239742524515e-001 1.9351997996749434e-001
      9.1637062604294439e-001 1.6366339994219373e-001
      1.3443086682293899e+000 7.0443950000505551e-001
      -1.9975918723348096e-001 -4.9892180453840318e-001
      -2.5070452759825272e+000 5.9883836759220332e-001
      -1.5276149316693792e+000 -8.4488647444166798e-001
      1.6578922106603229e-002 -3.6360594140326674e-001
      -1.0448542405186052e+000 -8.8924482807963848e-002
      1.4933537088178417e+000 3.8063023244392530e-001
      -2.1992859965546798e+000 4.0912087390440460e-001
      -9.8715720174870702e-001 -8.3190423559234006e-001
      -6.7194456368513622e-001 -7.3985224566449992e-001
      1.6074844554379694e-001 -7.9460898218867571e-001
      1.2383966623818028e+000 -8.1212492231440025e-001
      -2.6836709686697158e-002 1.3626798698869134e+000
      1.8402378364695746e-001 -1.1520683529389346e-001
      8.5314733376614456e+000 7.6707937448296015e-002
      -3.0421574193624934e-001 5.5230930136492951e-001
      -1.0015394937452704e+000 -1.1608124370739386e+000
      6.5773999493924207e-001 -1.2043152838958451e-001
      1.2311511584015544e+000 1.7391112968803659e+000
      -9.9192877788875167e-001 9.4048082241187247e-001
      -1.2453531548186176e+000 2.5298474600828413e-001
      -2.0978543026763261e+000 3.9764876821003248e-001
      -1.3312764252904943e+000 -1.5907261228927363e+000
      -5.9700381287601689e-002 -1.1918639103392643e-001
      1.7338607323731046e+000 3.4876915842164519e-001
      3.6983320789332336e-001 -1.5840145957097760e+000
      3.9429532191821282e+000 -1.4280790862188879e+000
      -2.4065771466488359e-001 -1.2946899269697842e+000
      4.8318091947460817e-001 -7.4972892444172240e-002
      6.1277938179496294e-001 -6.4763568050832077e-001
      1.4380994739671432e-001 -4.2787317290926408e-001
      9.0181816826334327e-001 -4.3585046948539719e-001
      9.5238746985389859e+000 2.5657347579139617e-001
      1.4332522681634412e+000 7.9516828845903020e-001
      2.1095589140664961e+000 -5.1137085803290028e-001
      -3.9324190317113811e-001 4.3636603989420047e-001
      -1.1293366086509726e+000 -1.3007527711103009e+000
      -8.2809435913274376e-001 2.0258552954634967e+000
      -1.0628904685652230e+000 -8.7604954368198495e-001
      -2.1551425858782318e+000 5.9029196578037024e-001
      -1.0595341142543995e+000 -5.5790750617925000e-001
      -1.7454266266031981e-001 1.1251709760605555e+000
      4.0066642171608580e-001 -3.0975907005590425e-001
      -7.8838562071208973e-001 -1.4700787199384322e+000
      1.6763620365590615e+000 -9.6371095378753802e-001
      3.0271905946078620e-001 -1.1360894674765734e+000
      -5.6447812379484474e-001 8.6783202140739257e-001
      1.7665223268463504e-001 -3.1747131438451931e-001
      7.5397367667308146e-001 1.4852409881032072e-001
      1.1707156703838648e+000 1.2110290077583193e-001
      -3.0334041332282977e+000 -7.0729675418548033e-001
      5.9581121437067708e-001 2.9830678652902448e-001
      1.2434617216662718e+000 -4.2015423009415388e-002
      1.0202230021337348e+000 6.1550147629262875e-001
      -1.8700469259550772e+000 -6.0640500413552878e-001
      3.3343883800625262e-001 1.6756864336265900e+000
      1.6833610072238703e+000 3.9011334590400804e-001
      1.0459185635243571e+000 1.1258322387578415e-001
      -1.4842357517344542e+000 4.7884584344129962e-002
      7.1708095993318621e-001 9.8995785811894732e-001
      -2.3685772500786464e-001 1.5633370961809445e-001
      -3.9823674741313858e-001 -6.1656094221490720e-001
      2.1064565012909542e+000 3.1797155216565653e-001
      3.0177492234155295e-001 1.6721710933326568e+000
      1.8072740268530008e-001 7.5931848226257592e-001
      9.4851201616652647e-001 1.5978487503121219e+000
      -8.8080192278338199e-001 -4.3175745540168020e-001
      2.0825102509826304e-001 -6.5164244132228266e-002
      6.6700877109428780e-001 6.0182603961345671e-001
      7.5169642348013405e-002 1.3356451061560148e-001
      -3.0520692488981654e-001 4.9059577459314707e-001
      -3.3175990820905676e-001 -3.4282145812904036e-001
      -1.0512368564597683e+000 -4.8843692283305401e-001
      -2.9218148466243182e-001 5.4627164398661276e-001
      4.4591558141057430e-001 -7.4289694251715432e-001
      -3.1520866759296257e-001 -3.2011995282243561e-001
      -1.2447569540152899e+000 -1.6334390818129025e+000
      -1.5942680583095969e+000 5.3966425338118829e-001
      -4.8261965323819717e-001 1.9152963731072872e+000
      1.0628392774312496e+000 -2.3628185816597274e+000
      1.5010786690511857e+000 1.1038514681073468e-001
      -2.0752677118341203e+000 -1.1334273163133461e+000
      6.9618687958910797e-001 -3.0583139721111730e-001
      -7.7239075505638133e-001 7.4172107766154377e-002
      -6.1374164643649853e-001 -1.1681526827198998e+000
      7.7345318015503794e-001 1.8063740535683873e-001
      -1.5612633313004107e+001 7.1155591253023209e-001
      9.2403483710467971e-001 -5.0856066650010334e-001
      -3.3255315584411721e-001 -1.8643838966590662e+000
      -7.2827749728772195e-001 -5.4855867264893643e-001
      -2.7675428814815710e+000 -1.0434597617149286e+000
      4.0112839167209452e-001 1.7173324156464365e+000
      -9.1495800537827854e-001 2.3275930855653599e+000
      2.0455719543703905e+000 -9.2079725269447044e-001
      -7.0861593263600342e-001 -5.7315194844952178e-001
      -2.6993028019060789e-001 -1.5297999237958107e-001
      -2.2617479339010207e+000 5.7698819626926323e-001
      1.0830908575052483e+000 -1.1222953990774827e-001
      -8.8988205402116372e-001 6.2308802492840787e-001
      -1.4779911357177586e+000 -2.2103033470358464e+000
      8.7389847894121031e-001 -3.8390998469115506e-001
      6.7919365595137493e-001 6.8554581671508819e-001
      -6.5527327657174006e-001 -8.9820300115082230e-001
      1.1020498469079976e-001 -7.7095407819453432e-001
      6.2523602528584323e+000 -1.2809455775921628e+000
      7.9264698183563487e-001 -7.8541921972112044e-002
      2.1346813927451988e-001 -1.1326554720936060e+000
      6.0492764159347001e-001 1.8073425714927244e-001
      -1.5567693976493175e+000 8.7318816822599876e-001
      -3.2730475696614814e-001 -4.8486790915171613e-001
      1.1551403206668595e-001 1.0845241619596786e+000
      1.5864377012766246e+000 9.7960762120195111e-001
      1.9416430987793887e+000 8.9622432169322341e-001
      8.1169307011147407e-001 -3.9822048650086794e-001
      -6.8401021066499867e-001 2.1597461174264510e+000
      -7.3269751249521828e-002 1.5866361810231533e+000
      6.3425030790487544e-002 2.0005976897058995e+000
      -7.9961795598078977e-001 -6.1203731762229030e-001
      7.5073744363667927e-002 -7.9820316875647812e-001
      -1.6885860323137808e-001 -4.6367633487677279e-001
      -1.0673077603669880e+000 -3.5086377171424565e-001
      9.6709381833468819e-002 8.4118227052869454e-001
      1.1520354419613675e+001 1.4775601139789689e+000
      -8.5196481806508562e-001 6.0992503120522908e-002
      -1.4089909847794071e+000 -1.1612591515724813e+000
      -1.2495360624135992e+000 -1.5120366507784647e-001
      -8.2054183765456046e-001 -4.2419385544372945e-001
      1.7119900269782879e+000 6.6261842585817321e-001
      -6.6622541522752332e-001 -8.8301609615395293e-001
      7.9555212421220178e-001 1.4634966492459796e+000
      2.4305831434844620e+000 3.8406581290280906e-001
      -4.9405342243742079e-001 3.0107013039363500e-001
      -5.4794039761955116e-001 1.4041506781146391e+000
      -3.8089017432389588e-001 1.5880565642263513e+000
      2.7586321028551319e-001 1.4805768035800355e+000
      -4.4156826312361758e-001 7.2629274332148253e-001
      5.1518728791230426e-003 -7.6189998897792299e-001
      1.3660301968042341e+000 -5.5228154785189809e-001
      1.2605457343300484e+000 -1.8676075510783678e+000
      -1.3646189766673569e+000 9.1357052937539707e-001
      2.4786611459528131e-002 -2.3645713549663598e-002
      -4.8021960262603386e-001 1.4815600423999367e+000
      -2.3074466271194016e-001 5.5836189892672738e-001
      3.0666280490319758e-001 1.5142723705430991e-001
      2.4523058688045756e-002 -8.8062783553459478e-001
      -1.4846154257692032e+000 2.4362649198565620e+000
      -2.1614287037128527e-001 6.3549996017944990e-002
      1.1377561924649620e+000 -3.5707081286452269e-001
      1.0388557307986039e+000 8.7013107699548764e-001
      3.6894121022288534e-001 1.4601930347599346e+000
      -2.1093615117478075e+000 2.6259535054213501e+000
      -1.2894504318408556e-001 -4.3752971208873093e-001
      3.4947306381245058e-001 8.3076283358679393e-001
      -1.9264826092860707e-001 -6.0991686483678897e-001
      8.0746340148662055e-002 -5.5064424400188650e-001
      -4.2635259472490784e-003 6.0227049712392355e-001
      -6.7642834375816446e-002 8.2437323458297884e-001
      -5.2458732322150474e-002 1.0168139212762928e+000
      2.6557049923154811e+001 -1.2771223291550174e-001
      -1.7815377636556067e+000 1.1073342348085096e+000
      3.0451333993732748e+000 4.9356226670950909e-001
      4.7973155682002150e-001 -3.4608210555311641e-001
      3.4147981996184712e-001 1.0121584033056072e+000
      6.3808635534285485e-001 2.3690497482791550e+000
      -1.7785968680749191e+000 -5.8868485961865591e-001
      2.0381834343676508e+000 -3.0618330078622702e-001
      5.9820251499568657e+000 1.0461390080509962e+000
      -1.3814057538807873e+000 2.1074498264330321e+000
      -9.5428164677288740e-001 3.3031578893749098e+000
      -1.1017082215791871e+000 4.4639357274314678e-001
      3.8403206488459929e-001 6.1375471492945621e-001
      -1.5814784387632304e+000 7.9168493596202849e-001
      -1.3897813698390313e-001 8.4216006539623911e-001
      5.2353296551604311e-001 1.3850385445601894e+000
      9.2026725458372693e-001 8.9811480081522421e-001
      -2.9561016832168701e+000 3.8630243118922061e+000
      -1.4524016703868521e+000 1.5041183758402116e-001
      -8.3360575492541400e-001 -5.5328572584443736e-002
      2.0573298603823220e-001 -6.3342005189183770e-001
      7.8370902888492988e-001 2.5809028822781971e-001
      4.0722394143985124e-002 -4.1378391140407078e-001
      -4.1563184148134957e-001 -3.7197545608150323e-001
      -8.9351607984071557e-001 -2.5856934563749325e+000
      2.6451778467422971e-001 4.2236248169202834e-001
      -5.1198489399881941e-001 -1.2976855864121841e+000
      6.6408870527388908e-001 -3.0882703381297960e-001
      -8.5287569576772637e-001 -1.7322148020884370e-001
      4.9896912060208959e-001 1.1329073565820003e-001
      -1.0282531718123493e+000 -7.5597698198729113e-001
      -5.2694579112112638e-001 2.2118038019867786e-001
      1.4987082694975146e-001 -2.0858965604769755e-001
      -6.5003482239446286e-001 1.0549281995332559e-001
      1.0097514412841542e-001 1.5496703121064037e-001
      9.9042573734941797e-002 7.8884693384533611e-001
      1.6175293884231767e+001 5.5580313332325948e-001
      -1.4983826668974689e+000 -8.4161180730565077e-001
      -2.7207876463828113e+000 9.9982100588132450e-001
      -4.8260752869943879e-001 -3.2044356679397756e-001
      3.8355361458606263e-001 -7.6579654873020531e-001
      -6.3728955206000873e-002 -4.0421114119495677e-001
      8.2119484906565965e-001 4.9930101592261286e-002
      -5.3453434025563640e-001 7.5596592689440278e-001
      -7.1893138712152949e-001 -8.0059791547033865e-001
      -3.2122635989587911e-001 -1.1671979751811128e+000
      9.8364589331419328e-001 1.4298784575829000e+000
      -1.6487326620685172e-001 7.8450336063914095e-001
      2.2253502100720407e-001 7.8071864570707761e-001
      -1.3673203237412890e+000 -1.1795289183536459e+000
      3.1270598593664067e-001 -4.5521480101021006e-001
      4.8103853148577763e-001 1.3706721112361198e+000
      3.3247971064797116e-001 -3.9255738804731816e-001
      -2.0330912708704920e+000 3.4143294878631013e-002
      3.2323024539583014e+000 4.9328088586008728e-001
      -9.1052091553287706e-001 -1.6761903009140495e+000
      -8.5208304798815204e-001 1.2942578473747961e+000
      8.3179418552685336e-001 -1.2229942181117935e-001
      1.3817483733925475e+000 1.1948546247460599e-001
      6.5301512312654431e-001 8.5365972548226621e-001
      -9.0228648515653775e-001 -2.1401665774440319e+000
      6.0118417931235790e-001 -9.2914127219268727e-001
      3.8974529216952636e-001 -1.6975048002685416e+000
      9.6018350488421866e-001 -1.2206810990562766e+000
      3.0779946000264034e-002 4.1776759171874028e-001
      -9.6388393840903097e-001 -2.0161882930819481e+000
      -1.5531408896699583e+000 8.6794523884562158e-001
      8.3752528557971317e-001 -1.8654170077099053e+000
      1.2241223264792864e-001 7.9736162729704785e-001
      -8.4065191822954211e-001 3.5289818905294068e-001
      -7.2600201987159241e-001 -6.7949005111105165e-001
      -2.1311035453857068e+000 -4.6510046835726432e-001
      -7.0003529524271846e+000 -6.7652865817282559e-001
      -2.7755660453163433e-001 -2.8502672352767422e-001
      -1.1820568005132146e+000 2.5253950363961253e-001
      -6.5890204577585065e-001 1.7373026285841942e-001
      -2.0138206121416044e-001 6.2909169198541215e-001
      5.2989862528834064e-001 5.5638416603855705e-002
      -1.8509279755448422e+000 -1.4628582469938054e+000
      1.2941349802433701e+000 9.3017031718880494e-001
      -2.6860158812537377e-001 -2.3711121273242119e-001
      -4.3077510136332936e-001 1.2182632841005117e-001
      -1.1432612851128507e+000 -2.2564482129066699e+000
      -1.6712248437170485e+000 7.6474521497191772e-001
      1.5501702705488010e+000 2.3447043774019966e-001
      5.7342639306649412e-001 -3.7969737793253722e-001
      2.4036754109183159e-001 -9.9161889741241127e-001
      -4.1431251135694180e-002 2.5515055327711642e+000
      1.2509607087937775e+000 1.1530744343071891e-001
      -1.0695748292707588e+000 1.1297209713047835e+000
      2.1190695131398574e+000 8.3490081530586968e-001
      5.8384242612859627e-001 6.0207198024762554e-001
      -1.0464888998354920e+000 8.2874497214469534e-001
      -4.2471132087581998e-001 -5.6873443535423740e-001
      1.0458350812861885e+000 1.3293465418369348e+000
      -2.5479893334721648e-001 5.6583074410146939e-001
      2.1509137344626333e-001 -9.1473084645941283e-001
      -1.3479814993733805e+000 5.1220790116460468e-001
      1.0315240469371687e+000 2.0429082291794050e+000
      -1.2002298983884261e+000 1.5249911025913035e-001
      7.3540557513920926e-002 -8.6904821329773840e-001
      -2.5020999257689058e-001 1.1031395318281441e+000
      2.7562693868248245e-001 -5.9764634010300105e-002
      -2.7088256081553808e-001 -3.5371149257827161e-001
      -1.4999679444883207e-001 9.1218670671960111e-001
      -2.7677379083065401e-001 1.2873196919627996e+000
      7.5556588847670580e-001 3.5339127317456792e-001
      -8.1681957954617290e-001 -1.5592988163212338e+000
      -1.4556082343111649e+001 1.2918542140770726e+000
      -9.2583586580305743e-001 -1.0493055317143070e+000
      7.2287686200590584e-001 -1.2385779294749686e+000
      7.2691225755863662e-002 5.0812991988110595e-002
      3.4812635134105835e-001 -3.3032655495562735e-001
      -9.7431002215564921e-001 6.0077555064782961e-001
      -1.8350881906315011e+000 -4.8192502618400751e-001
      1.4874535528365818e+000 -1.1900714569231448e-001
      4.1613338188641713e-001 4.4906048110115820e-001
      4.6645293292388312e-001 -2.1668535067152170e-001
      -1.2596746892804708e-001 1.3743039186873860e+000
      -1.8988196773477530e+000 -7.7736768376070808e-001
      4.2156885314089315e-001 7.5150514023454040e-001
      2.6642692168662946e-001 -6.5767649710975740e-001
      -6.6147547052775768e-001 -1.0018528580839356e+000
      1.2379925033882835e+000 8.6010784572066257e-001
      1.0592075561074179e+000 -1.1899038395376560e-002
      -8.6934098398167670e-001 -1.7353983550650195e-001
      -2.2198897099638600e+001 4.8738982569490086e-001
      -6.0424202506731017e-001 -3.7748393775951294e-001
      -8.3008518878612447e-001 -2.5754946172867649e-001
      -3.9819991145147976e-001 4.0939899045749233e-002
      -1.8517960099127148e-001 5.0289854599583339e-001
      2.9550442495363410e-001 -2.1543134221120103e-001
      -1.4874608877544773e+000 -2.6388625379138408e-001
      -7.8656160266046848e-001 -4.2711387671099554e-001
      -5.9271070789693281e-001 -3.5510845232485228e-001
      -6.4905273225729287e-001 2.1459368053638553e-001
      2.1556895681183312e+000 8.9775691857724194e-001
      -3.1204352603737012e-001 -5.2015985956263763e-002
      -1.0166518327360536e+000 -9.5693230397023421e-001
      5.9163149111511915e-001 1.0394904521591100e-002
      2.0568146275860924e-001 -2.0185216948003779e-001
      -5.1855550526840943e-001 1.3341631162629886e+000
      2.8063297483194349e-001 -9.2170228398748416e-002
      -2.5173706966284842e-001 -5.8882421690096198e-001
      6.5012195046519194e-001 -9.3692591662171554e-001
      4.3059531600249579e-001 -1.0783956564983674e+000
      -4.1592390820462954e-001 -4.8463127675982226e-001
      5.3295699606787150e-001 -3.6749888565346868e-002
      -4.6994471978349378e-001 9.3427774243679942e-002
      8.1819862753313732e-001 8.4936836679283334e-001
      -1.7035895373849128e+000 7.7381943112550788e-001
      -1.6806949389049214e-001 -4.8491790730443685e-001
      4.5268045011989599e-001 -8.5182580179572875e-001
      -1.9284212803154080e-001 -1.2482099682910481e+000
      1.1187031005135586e+000 3.6322880559826903e-001
      1.2561701705356223e+000 -6.1654737961182793e-001
      -8.3596791325009501e-001 -8.5895868214606874e-001
      -5.0618469454524628e-001 1.0286723516045908e+000
      -3.4280210648905673e-001 1.3199093553461870e-002
      -9.9742051072576154e-001 4.8420746803112241e-001
      5.5645332684889359e-001 -1.9400803885720147e-001
      -1.8048519152226222e-001 4.1675402291997887e-001
      1.8319605887924332e+001 1.3028403355419265e+000
      -2.9272225386337619e-001 2.2206512679233521e+000
      -1.2186210971177314e+000 2.3751082059068791e-002
      4.6060452647043615e-001 1.6044766514431433e-001
      -1.3942793782133382e-004 3.3219206041529192e-001
      -3.1687189208404620e-001 1.4464753048394055e+000
      -1.1632585476734465e-001 1.4171867160080633e+000
      -3.0914620329976450e-001 3.2290570857189410e-001
      6.1584965403625215e-002 2.2901794795693078e-001
      6.7195755572474050e-002 6.9555280557658208e-002
      -1.1118117404017522e+000 -5.7119075636539485e-001
      1.0142283406527521e+000 -2.2942696788190181e-001
      -3.7124785072275873e-001 -4.2813712766552464e-001
      5.2389092491660405e-001 -7.3564139015938068e-001
      1.8748905342295516e-001 1.0599827416873593e+000
      4.8747976262657061e-001 3.8855830050771928e-001
      -2.6879172094578552e-001 6.7163004923488390e-001
      2.0399355320727722e-001 2.1530560094460633e+000
      1.3309051963849186e+001 6.2713230411425613e-001
      1.4642300191492449e-001 -2.3767014490224309e-001
      4.3305877398733433e-001 -2.3348267646745802e-001
      4.7948325823786171e-002 5.0082224481854030e-002
      1.0618006253282473e+000 1.7545656546783472e-001
      2.1421603074255498e-002 5.9405588690368749e-001
      1.1887879774254756e-001 -4.9879358991650843e-002
      -1.3331141900146204e-001 5.8820592459328747e-001
      1.6758466825676255e+000 -2.0926378817905569e-002
      -6.8069598059574354e-001 5.1524895319951869e-001
      1.2538246132293340e+000 -6.9779073575842043e-001
      1.3020155886279285e+000 2.8252038203510976e-001
      1.9825466746151830e+000 -1.2391725047159350e+000
      8.2315449549676312e-001 1.2623508349259507e-001
      4.7534950168172177e-003 -7.1357649117584118e-002
      -8.4829730796971314e-002 -7.9120457336366135e-002
      1.2368188697956777e-001 -1.2500137361307688e+000
      -1.0530748192828353e-001 1.9712707982603603e+000
      2.9617970485323536e+001 2.5575801185921438e+000
      -1.3808617510995841e-001 1.0125494994574558e+000
      5.3050168096656791e-001 -9.5528014916793225e-001
      6.7331320328643374e-001 7.3832942481017530e-002
      2.0488622743816878e+000 1.5604584202539931e+000
      -2.4361236955880213e-002 2.2764508032802505e-001
      -4.1125686466896172e-001 -9.1797008719787576e-002
      -2.5477699453600811e-001 6.6667458948255942e-001
      1.3755797323244376e+000 5.2555049136870957e-001
      -3.3533956847105684e-001 1.2696638427538504e-001
      9.3929985874549149e-001 -2.6458329116345009e-001
      1.4139050398280644e+000 9.9375380938675673e-001
      7.6365807633014882e-001 -1.3859391921181230e+000
      9.0030941499501652e-002 3.4175448353184990e-001
      4.1276986827121758e-003 -1.1699999995185122e+000
      -1.3357058445100850e-001 1.6485254222160262e-001
      8.4788170077014569e-001 7.1542977781245176e-001
      -7.4193392693152851e-002 1.1812088785233599e+000
      -1.1000090989539317e+000 -8.9241496066907833e-001
      -5.4116190631001226e-001 1.4621955200126417e+000
      -4.3201224089361730e-002 -2.4172020661949101e-001
      -4.4711374542532482e-002 -7.3052397123131851e-001
      9.7986182535522437e-001 -1.1272888375657952e+000
      1.1439202362212389e-001 8.0419513685505395e-001
      1.3734667638533296e-001 -4.0583862134539500e-001
      -7.9445851474425166e-001 4.0690176994163785e-001
      2.7580507815304728e-001 -1.6488678965551700e+000
      4.7962986374025279e-001 2.0939549492698853e-001
      2.4536627320696344e-001 -2.5749614095033768e-001
      -2.5418237011811334e-001 1.0651300584541117e+000
      -2.1433954039900704e-001 -7.3250737194139826e-001
      4.7059871747726323e-001 -8.0702501491513645e-001
      2.1673814117002016e-001 3.0673562285374603e+000
      3.5369057427398359e-001 -2.4573176974668784e-001
      -5.7692391617914361e-002 -4.2913839689657834e-001
      8.1704995853516438e-001 1.4328538513227633e+000
      -2.5280387525965159e-001 1.2487322937348408e+000
      -4.8995180621472878e-001 -1.3777613871727108e+000
      -4.0601872155467428e-001 9.9472177357458080e-001
      9.2667834344366462e-001 1.3642077475912018e-001
      -1.5850583252581665e-001 -1.0506236808914602e+000
      1.1114512084598509e+000 -5.3219195502026340e-001
      -9.8968013182194148e-001 4.8558603747631129e-002
      -8.5107860402891700e-001 -3.0320911847204446e-001
      2.0484110437045358e+000 -5.6714756413022949e-001
      3.6304354697416008e-001 2.2442971372670473e-001
      -5.0803183431684251e-001 -1.0640960046459078e-001
      2.1484095984468996e+000 9.3120270078874856e-001
      -4.0609276219877138e-001 -5.8334631353011068e-001
      1.2336089915909052e+000 -6.5226882674756603e-001
      -6.3091727221790395e-001 -6.5826241703165178e-001
      4.4853746336985001e-001 3.1546574683854123e-001
      -1.5465005639212659e-001 -3.0118476580262843e-001
      -4.7699908546508163e-001 5.3337106043035676e-001
      2.1370451798521888e+001 6.3669893030494618e-001
      -1.3772153814894657e+000 -3.9048621099818420e-001
      -7.9042674419140835e-001 1.6639167016838968e-001
      6.4710257334511989e-001 1.9407688947077884e-001
      1.4212972329712534e+000 -1.0462147100255575e-001
      -1.0126608830179884e+000 9.3928810946574526e-001
      3.6780578837373562e-001 -1.0681918083742628e+000
      2.0980023454938870e-001 3.6407072697070114e-001
      9.9822291276898978e-001 -6.2185092996307711e-001
      4.9408506217268916e-001 1.5743288064992783e-001
      1.0315487660900806e+000 9.1388803729419754e-001
      -5.2289857015463093e-001 4.4619160532140573e-001
      1.4253452149382733e+000 -7.4442149267334567e-001
      -9.2272450410124762e-001 -3.4953732017801636e-001
      2.4065210085551159e-001 9.2582392407668773e-002
      -1.8294237842309886e-002 -1.1316359425768985e+000
      -6.9393501922608092e-001 -5.8165628276609005e-001
      -1.1112494853164092e-002 -1.1096582959845616e+000
      -7.8996483852199955e+000 1.5271164130986559e+000
      -1.3010175211667592e+000 -1.1698898798149817e+000
      -1.2088959961559723e-001 1.3739040625359809e+000
      -1.0221908023636292e-001 -5.6285751232072789e-001
      -4.6113501486509839e-001 -1.6901757998627900e+000
      6.8997642595873021e-001 1.4303554988063556e+000
      -1.5268565438133399e+000 4.6638500200972266e-001
      -4.3110380454407798e-001 -1.7216893054069946e-001
      -1.3783196623953922e+000 -3.1305251410455703e-001
      1.0614838793378818e+000 1.6408565448192736e-001
      1.9583231827631677e+000 1.1205362947227644e+000
      -8.7832252773215358e-001 9.6253239530275025e-001
      9.2143650038911051e-001 -1.0402531839984802e-001
      -3.4693626711484848e-001 -7.3740795360335218e-002
      3.8294902173915163e-001 -5.9153652441823579e-001
      1.8825401289378167e+000 7.0393423388727516e-001
      1.1561176176966450e+000 6.7193158169863243e-001
      -1.4346437938916763e+000 1.4196322462060951e+000
      2.1358943020065134e+001 2.7339038266517107e-001
      -6.9551605243726833e-001 -1.5659394863887770e+000
      -1.7435551761474366e+000 6.4688146186746409e-001
      1.8302589746411153e+000 2.9403889893495472e-001
      -1.3462160319640049e+000 -1.8330877183030656e+000
      3.3688319012140000e-001 2.2531431838425000e+000
      -5.9338733628345475e-001 -4.7573212330343856e-001
      -1.9333366441063042e+000 4.7017192716306511e-001
      -1.9333326021976185e+000 -1.4402426826364612e+000
      1.1290631569724575e-001 -6.2422389692362856e-001
      1.3133663830190421e+000 -1.5605656154704757e+000
      4.8181120920606024e-001 1.9060998357781359e-001
      3.4840490226755289e-001 1.3215931331924384e+000
      -3.0887290385458471e-001 -9.0672403434453130e-001
      -1.0859804857363999e-001 -7.1164613986347658e-001
      2.7769533738991727e+000 1.1390758432569710e+000
      -2.7803582318366654e-001 8.2040107090578429e-001
      -1.0731655454049576e+000 7.8975582192637772e-001
      -1.3210735686722305e+001 -7.6905260902339789e-001
      -4.4673223522723710e-001 1.2669106873667941e+000
      5.8315306039057402e-001 -5.1132333932745022e-001
      3.1706726724184225e-001 6.5281640817485054e-002
      2.4320539735839133e+000 1.3673453290693041e+000
      7.0198492030606174e-001 -1.6780539382933992e+000
      -5.7098194568825344e-001 -1.1547827435538804e+000
      -2.3107122086635399e+000 5.3280957151120738e-002
      -1.7028864018115036e-001 -5.2082296815735696e-001
      1.0765609672213036e-001 -5.4465062973331912e-001
      -3.7812867617271186e-002 5.5802092636146927e-001
      -6.2931641288424123e-001 -1.0351220414151838e+000
      -1.5507553508555927e+000 -1.0050806385515079e-001
      -5.4647840709747086e-001 5.3707443125609078e-001
      -6.1641146553083714e-001 -5.3108846190822390e-001
      9.8274293620601250e-001 6.0953061173869470e-002
      -3.5050130525107311e-002 1.1962050874533683e+000
      -3.5319285978241061e-001 -9.0408097052521993e-002
      -3.7914751033986207e+001 -1.9558116627133015e+000
      -2.0958660348079328e-001 2.1705916486742202e-001
      6.6322198665247434e-001 -1.6363747406516034e+000
      -8.7959200798432458e-001 9.2711548265868582e-001
      -9.3270839915743786e-001 1.4093312787722709e+000
      -3.1647548977740919e-001 -2.5196116446973247e+000
      8.2744472900051580e-001 -1.0719888011637242e+000
      1.1561944063643305e-002 1.4302495179977301e+000
      -1.8054165821519219e+000 1.0868779536434421e+000
      1.7783543847521135e-002 -6.9151340702269981e-001
      2.0867284079670714e-001 -1.6221016205981873e+000
      3.3194623733638556e-001 1.0339793385544391e-001
      5.4018746740642742e-001 -1.6220056873827399e-002
      7.1622882449601426e-003 -1.4912562973100037e-002
      -3.8240800092666294e-001 8.3265466637226659e-001
      5.2432318571805048e-001 1.8416394381135328e+000
      7.4106779290085434e-001 1.1159657341289702e+000
      2.3491992527853978e-001 -2.1979980985714533e+000
      -1.4727207676920889e+001 -1.4477892394355203e+000
      -3.6347497935334419e+000 -3.8769033061695651e-001
      -1.2723087836284315e+000 -2.0946510309471555e-001
      3.6343156727332021e-001 4.7214245698822010e-001
      2.8634006755512970e-001 2.3918082279685127e+000
      1.7886002451934521e-001 -2.8239186307655051e+000
      -9.2599308552845527e-001 -1.1503194497492018e+000
      6.9978838299203136e-002 1.6889423652882476e-001
      -1.0134718218245342e+000 7.9690479666223202e-001
      -1.3527264054745383e-001 -1.0242655996342573e-001
      6.3636316348474564e-001 -9.1951332734395230e-001
      -2.1430410156944251e+000 -7.8036295734522010e-001
      1.8473317090664920e+000 -8.9391254419976784e-001
      -1.4662165338736379e+000 -1.5596314069658146e+000
      8.8721482966653320e-001 -1.1618813163430655e+000
      -1.5604932280632402e+000 1.7728734292581936e+000
      -3.2854753894688460e-001 9.8665548342761855e-001
      -1.6976347593081555e+000 -1.2503457931976556e+000
      -2.4932411264759526e+001 -3.6044347247541514e-001
      -1.0901377504898344e+000 -1.2891564490676768e+000
      -4.5401359773029110e-001 1.2361224205711765e+000
      1.5497928774434869e-001 3.5578488967867067e-001
      5.0459392347709198e-001 2.0961363356224574e+000
      1.1087957911816007e+000 -1.6392718808903251e-001
      -2.1691734627274948e+000 -7.4067016227227500e-001
      -4.9011961266728937e-001 1.0074895062521282e-001
      6.7239734068487667e-001 1.4217514927457540e+000
      9.7143229505254489e-002 -7.0180349395012775e-001
      8.8516154346676224e-001 -2.7562406854382104e-001
      3.9882225066991839e-001 4.6898231343858204e-001
      5.8113974844149402e-002 -1.0463072757860181e+000
      8.4230179480795725e-002 -5.2256474001874342e-001
      3.4273534952172907e-001 -7.2409272531454727e-001
      3.7161140873684323e-001 1.6320588462232299e+000
      1.8545098486669900e-001 7.7369908798521825e-001
      -6.9453198183709286e-001 -6.6391323709052630e-001
      -2.2667263622334858e+001 -4.0745985156761200e-001
      -7.3525221437218202e-001 -9.0948745850626589e-001
      -5.4906132890560407e-002 1.5517155879352038e+000
      -2.6331798173650506e-001 7.2675539848489748e-002
      -1.5820810562967794e-001 -4.5081029725505978e-001
      -3.8487539553720890e-001 -1.8139888666948489e+000
      8.0677919198242531e-001 -2.7077340624715704e+000
      8.0539352599545241e-002 1.1252378820384730e+000
      -5.2362371567046062e-001 8.4203966746612380e-001
      -1.3433003309770153e+000 2.1018445977272585e-001
      -1.8776089455516274e+000 -2.1718197663580230e-001
      7.8106478382883271e-001 1.7075930755759186e+000
      -1.9743800187027258e+000 -1.0424233417974400e+000
      3.1225083376167911e-001 -4.1550474028944023e-001
      -1.6117652589018427e-001 -1.5489330251590270e+000
      -5.5584291334687963e-001 1.0082689103860447e+000
      -3.8255246318301828e-001 -3.6337070612852862e-001
      7.4704985905691834e-001 -3.4810289409544972e+000
      -3.0854264439224419e+001 1.5812083375804518e+000
      -6.6833392215044751e-001 3.4197454578491815e-001
      -1.8394173681455004e+000 1.4457206718403228e+000
      6.1585720888493534e-001 -1.3334860345680322e+000
      -1.6711314792664058e+000 -4.5934206819828993e-001
      3.9471742407947957e-001 1.6160246057735125e-001
      6.9570668294485527e-001 6.1163319899916357e-001
      -9.2740698973679547e-001 -8.6234811529525557e-002
      1.0274896666360211e+000 1.9432259901755877e-001
      1.7091024619344853e-002 -4.5750923091400608e-001
      3.5214555089334260e-001 -1.8296211313779689e-001
      -9.8149249254449164e-002 8.4885403377140889e-001
      7.4683893947834890e-001 8.6431852040901036e-001
      -4.7668061044525034e-001 -1.7223046323827307e+000
      3.4746194199926916e-001 1.8642524696907553e-001
      3.6813321503806667e-001 6.9632028477415209e-001
      -5.2802157166523567e-001 1.0656313316084479e-002
      1.2665754330963950e+000 -2.0839918214308804e+000
      -9.6215563452025030e+000 1.2961555659384099e+000
      5.9001619392638170e-002 5.1126015987211848e-001
      1.2485994765835680e+000 8.2657168390314517e-001
      1.5952959976093561e-001 7.7768077001551295e-001
      4.1278235583498696e-001 -1.0212140487199841e+000
      4.8362592180312081e-002 -1.6644361508047161e+000
      1.3064023402156495e-002 6.8503304858056835e-001
      -2.5582687825491379e-001 -5.9835126260217619e-001
      1.7384654488871969e+000 2.6064842004658212e-001
      1.3762788785195923e-001 1.4328110151286561e-001
      -8.9902166315612630e-001 8.4365703003017128e-002
      8.0745457420248989e-001 1.5036669878898106e+000
      -1.0728704282189541e+000 -6.8155091306608917e-001
      -1.1364893182344542e+000 1.1649311801731266e+000
      1.2976769477062938e-001 1.1491833197492420e+000
      7.6390937953507831e-001 4.6787881918107066e-001
      -4.7153989752737074e-001 -1.2925150342177514e+000
      8.1511955935717709e-002 -2.0222568883497982e+000
      -1.3495925259785796e+001 9.4081303568051933e-001
      -1.3908585151869406e+000 2.2518479268882619e-001
      -1.1259116703494882e+000 5.6825514823725309e-001
      2.3222922161156609e-001 -2.2894760868069186e-001
      1.3569029710764027e-001 1.6687094413651626e-001
      8.2629427571375946e-001 -1.2269684956788842e+000
      6.9594420420164926e-001 -1.8002122888974388e+000
      3.0819095369337135e-001 -5.9811813291914140e-001
      -7.4003050245372104e-001 2.1609126778406795e-001
      -6.6953075252436633e-001 -1.0087315730628899e+000
      1.3133959978545180e+000 -1.5414625828681847e-001
      -1.0242631357247434e+000 3.2154488064589876e-001
      -1.2421615952821792e+000 1.5180481405322648e+000
      -1.0063037830031443e+000 1.5951531684900669e-001
      1.2352434962648003e-001 5.9542114215191400e-001
      -4.9129975160545419e-001 1.6486982450802568e+000
      4.1904777858366243e-001 -3.1313074196929445e+000
      1.4265720281360676e+000 3.4082800038178512e-001
      2.4495384792952728e+000 7.6007312716257769e-002
      -2.2700001385042529e-001 -1.6191314287646055e-001
